// #### Generated By: http://www.cufonfonts.com ####
/*!
 * The following copyright notice may not be removed under any circumstances.
 * 
 * Copyright:
 * Typeface: Copyright ©1995 International Typeface Corporation. Data: Copyright ©
 * 1995 Microsoft Corportation. All rights reserved.
 * 
 * Trademark:
 * ITC Eras is a registered trademark of International Typeface Corporation.
 */
Cufon.registerFont({"w":1334,"face":{"font-family":"Eras Bold ITC","font-weight":400,"font-stretch":"normal","units-per-em":"2048","panose-1":"2 11 9 7 3 5 4 2 2 4","ascent":"1638","descent":"-410","x-height":"26","bbox":"-273 -1582 2206 487.637","underline-thickness":"175","underline-position":"-67","unicode-range":"U+0020-U+20AC"},"glyphs":{" ":{"w":512},"!":{"d":"176,-510v10,-235,18,-520,24,-855v85,1,155,2,211,2v45,0,111,-1,200,-2v-13,123,-36,408,-67,855v-68,-1,-123,-2,-164,-2v-61,0,-129,1,-204,2xm129,0v5,-62,9,-109,11,-142v2,-33,5,-102,10,-206v84,1,156,2,215,2v50,0,117,-1,200,-2v-9,150,-15,266,-17,348v-101,-1,-169,-2,-203,-2v-50,0,-122,1,-216,2","w":727},"\"":{"d":"139,-966v4,-77,6,-153,7,-226r2,-173v55,1,99,2,130,2v23,0,64,-1,123,-2v-14,124,-26,257,-37,399v-45,-2,-78,-3,-100,-3v-33,0,-75,1,-125,3xm485,-966v5,-85,6,-162,7,-233r3,-166v55,1,98,2,129,2v24,0,65,-1,124,-2v-15,131,-28,264,-37,399v-45,-2,-79,-3,-101,-3v-33,0,-75,1,-125,3","w":813},"#":{"d":"278,-383r-233,2v17,-75,32,-155,46,-242r233,2r29,-155r-233,1r46,-241r232,1r64,-350v42,1,84,2,127,2v47,0,90,-1,127,-2r-68,351r182,0r65,-351v41,1,84,2,127,2v48,0,90,-1,126,-2r-67,350r231,-1v-19,85,-34,165,-46,241r-231,-1r-29,155r232,-2v-17,73,-32,153,-47,242r-231,-2r-69,383v-43,-1,-85,-2,-128,-2v-48,0,-90,1,-127,2r75,-384r-183,0v-5,24,-28,152,-70,384v-42,-1,-85,-2,-128,-2v-48,0,-90,1,-126,2xm602,-777r-29,157r183,0r30,-157r-184,0"},"$":{"d":"857,-1058v-60,-2,-118,30,-118,84v0,58,37,85,75,122v133,132,215,192,278,334v47,105,25,240,-28,314v-62,86,-124,129,-236,174r-1,249v-73,-1,-130,-2,-173,-2v-43,0,-106,1,-189,2v4,-53,5,-143,5,-218v-118,-16,-164,-27,-269,-61v-5,-167,-10,-282,-16,-345v102,46,204,76,321,84v95,6,164,-87,100,-165v-27,-33,-53,-57,-83,-86v-106,-104,-176,-178,-213,-219v-84,-91,-118,-291,-33,-407v67,-91,136,-135,272,-167v5,-77,-1,-138,1,-217v73,1,133,2,181,2v53,0,113,-1,180,-2v-3,74,-5,117,-5,130r0,86v66,9,131,23,195,41v5,108,11,220,19,336v-83,-38,-169,-66,-263,-69"},"%":{"d":"380,-505v-237,-1,-346,-162,-346,-402v0,-170,70,-359,186,-421v62,-33,128,-53,201,-53v231,0,343,163,342,404v-2,267,-119,473,-383,472xm411,-1191v-108,0,-129,170,-129,291v0,70,9,122,28,156v48,84,133,59,170,-36v35,-92,52,-274,5,-358v-20,-35,-45,-53,-74,-53xm456,0r282,-521r440,-844v42,1,79,2,111,2v27,0,63,-1,108,-2r-218,404r-371,707r-125,254v-41,-1,-76,-2,-105,-2v-19,0,-59,1,-122,2xm1435,16v-239,-3,-345,-152,-345,-405v0,-171,72,-357,186,-419v60,-33,126,-51,199,-51v235,3,345,154,345,398v0,269,-110,481,-385,477xm1543,-276v38,-117,60,-378,-76,-392v-130,20,-136,236,-121,380v7,69,55,143,132,109v32,-14,51,-52,65,-97","w":1852},"&":{"d":"1069,-552v16,-50,16,-105,19,-173v68,2,127,3,177,3v51,0,107,-1,169,-3v0,200,-50,333,-124,461r224,264v-95,-1,-171,-2,-228,-2v-77,0,-149,1,-218,2r-79,-99v-107,74,-222,123,-396,125v-303,3,-536,-146,-536,-434v0,-91,26,-172,79,-244v53,-72,145,-142,278,-207v-63,-99,-96,-225,-32,-341v69,-124,205,-191,402,-191v107,0,218,13,335,38r7,310v-75,-30,-121,-47,-203,-50v-100,-3,-189,50,-157,149v52,158,187,272,283,392xm467,-415v-7,144,190,192,303,123v14,-9,33,-22,54,-40r-220,-264v-70,44,-132,79,-137,181","w":1571},"'":{"d":"139,-966v4,-77,6,-153,7,-226r2,-173v55,1,99,2,130,2v23,0,64,-1,123,-2v-14,124,-26,257,-37,399v-45,-2,-78,-3,-100,-3v-33,0,-75,1,-125,3","w":467},"(":{"d":"617,-1205v-130,452,-191,1163,-55,1673v-66,-1,-117,-2,-153,-2v-39,0,-94,1,-165,2v-60,-223,-113,-477,-111,-750v3,-419,86,-722,209,-1083v60,1,113,2,158,2v47,0,100,-1,160,-2","w":762},")":{"d":"55,468v185,-513,206,-1236,95,-1833v66,1,119,2,160,2v43,0,95,-1,158,-2v66,298,102,504,102,811v0,391,-82,705,-197,1022v-67,-1,-122,-2,-164,-2v-43,0,-95,1,-154,2","w":752},"*":{"d":"146,-1071v13,-23,85,-165,94,-193r207,101r-7,-228v43,1,79,2,110,2v35,0,71,-1,108,-2r-34,230r219,-97v21,66,44,130,67,193r-221,68r151,166r-173,138r-149,-199r-176,199v-43,-44,-94,-91,-153,-141r169,-166","w":1019},"+":{"d":"94,-579v7,-71,11,-154,13,-249r448,3r19,-455v33,1,77,2,130,2v53,0,96,-1,130,-2r-26,455r450,-3v-6,71,-10,154,-13,249r-449,-3v-2,39,-8,191,-19,456v-70,-4,-190,-4,-260,0r25,-456"},",":{"d":"-28,256r175,-505v93,1,160,2,203,2v34,0,98,-1,193,-2r-301,504v-59,-1,-103,-2,-132,-2v-37,0,-83,1,-138,3","w":604},"-":{"d":"-3,-393v8,-97,13,-189,15,-277v95,3,184,4,268,4v85,0,175,-1,269,-4v-8,86,-13,178,-15,277v-95,-2,-184,-3,-269,-3v-85,0,-174,1,-268,3","w":547},".":{"d":"98,0v5,-89,10,-210,14,-362r206,3v22,0,80,-1,174,-3v-5,73,-11,193,-18,362r-174,-2v-13,0,-80,1,-202,2","w":604},"\/":{"d":"-273,468r207,-379r573,-1068r204,-386v55,1,93,2,116,2v28,0,67,-1,116,-2r-830,1569r-134,264v-59,-1,-98,-2,-118,-2v-13,0,-58,1,-134,2","w":908},"0":{"d":"635,26v-375,0,-563,-248,-557,-632v7,-442,177,-785,626,-785v242,0,404,96,492,279v133,277,58,751,-92,936v-95,117,-268,202,-469,202xm824,-1012v-44,-83,-138,-112,-211,-55v-113,88,-137,278,-137,478v0,128,20,224,80,283v40,38,101,54,154,25v125,-68,161,-281,161,-478v0,-113,-17,-197,-47,-253"},"1":{"d":"501,0v9,-103,20,-270,33,-501v13,-231,21,-396,23,-495r-72,46v-23,15,-74,50,-152,106v4,-57,8,-124,11,-200v3,-76,5,-132,5,-168v81,-53,162,-92,238,-153v59,1,128,2,205,2v73,0,148,-1,225,-2r-20,223r-43,740r-10,272r0,130v-57,-1,-126,-2,-207,-2v-95,0,-173,1,-236,2"},"2":{"d":"1176,-296r-23,296v-166,-1,-340,-2,-521,-2v-219,0,-404,1,-555,2r13,-283v216,-179,424,-369,587,-576v35,-44,53,-63,53,-118v0,-145,-217,-127,-360,-108v-52,7,-123,23,-212,46r26,-143v6,-29,15,-84,26,-165v368,-60,821,-103,980,145v107,166,-23,359,-108,465v-132,164,-269,298,-442,455r264,-1v77,-1,131,-3,161,-4v30,-1,67,-4,111,-9"},"3":{"d":"1210,-400v0,472,-639,473,-1076,373v-9,-135,-17,-243,-26,-323v149,50,283,75,403,75v128,0,248,-51,248,-164v0,-49,-23,-83,-69,-107v-74,-39,-277,-40,-391,-23v9,-104,17,-206,23,-307v158,21,422,41,422,-116v0,-138,-209,-118,-354,-107v-47,4,-112,15,-193,32r62,-298v145,-17,277,-26,398,-26v293,2,564,53,564,338v0,206,-134,289,-291,350v168,31,280,113,280,303"},"4":{"d":"91,-682v152,-185,351,-458,490,-683v103,1,195,2,277,2v77,0,157,-1,238,-2v-11,141,-20,280,-26,415v-6,135,-10,237,-11,306r172,2r39,-3r-4,300v-43,-3,-145,-5,-218,-3v-5,65,-8,181,-8,348v-66,-1,-134,-2,-205,-2v-66,0,-139,1,-218,2r26,-348r-567,7xm700,-629r21,-451r-108,164r-206,287r293,0"},"5":{"d":"1220,-456v0,473,-606,546,-1061,436r-13,-190v-2,-27,-7,-70,-14,-130v138,39,252,59,343,59v135,0,262,-54,262,-180v0,-49,-21,-88,-67,-111v-117,-60,-340,-38,-504,-14r51,-646v2,-32,4,-76,6,-133v167,1,328,2,483,2v196,0,359,-1,490,-2v-6,69,-10,124,-11,165r-5,136r-446,-7v-21,0,-55,1,-102,2r-20,229v332,-30,608,78,608,384"},"6":{"d":"830,-442v1,-116,-112,-172,-229,-150r167,-279v293,-50,500,108,491,386v-11,348,-246,511,-607,511v-328,0,-569,-146,-569,-459v0,-279,120,-438,245,-645v64,-106,132,-200,200,-287r512,0v-215,246,-302,337,-440,596v-52,98,-102,186,-102,320v0,104,59,183,167,183v104,0,163,-74,165,-176"},"7":{"d":"162,0r330,-615r237,-455v-59,-1,-104,-1,-135,-1v-139,0,-291,4,-454,13v7,-89,11,-191,14,-307r1075,0r-15,316r-239,459r-152,301r-136,289r-525,0"},"8":{"d":"85,-350v0,-204,117,-301,286,-350v-126,-58,-212,-130,-212,-299v0,-293,261,-390,564,-392v212,-1,393,70,464,211v21,43,32,95,32,155v0,186,-93,255,-231,322v154,38,260,109,260,288v0,385,-432,498,-824,419v-183,-37,-339,-138,-339,-354xm853,-983v0,-84,-66,-132,-154,-132v-97,0,-171,62,-171,152v0,85,66,132,154,133v93,1,171,-62,171,-153xm851,-422v0,-96,-74,-144,-176,-144v-111,0,-191,61,-191,163v0,97,79,151,180,151v109,0,187,-62,187,-170"},"9":{"d":"722,-1391v362,-4,605,212,529,584v-67,325,-270,566,-437,807r-521,0r165,-205v140,-191,313,-386,376,-635v34,-132,-18,-257,-150,-257v-104,0,-187,77,-187,184v0,124,115,178,239,143r-194,286v-23,3,-42,5,-58,5v-238,-10,-402,-149,-402,-398v0,-350,272,-510,640,-514"},":":{"d":"122,-659v6,-107,11,-227,15,-362r205,2v22,0,80,-1,174,-2v-5,65,-11,185,-18,362r-174,-3v-13,0,-80,1,-202,3xm98,0v5,-89,10,-210,14,-362r206,3v22,0,80,-1,174,-3v-5,73,-11,193,-18,362r-174,-2v-13,0,-80,1,-202,2","w":604},";":{"d":"122,-659v6,-107,11,-227,14,-362r205,2v23,0,81,-1,175,-2v-5,70,-11,191,-18,362r-174,-3v-13,0,-81,1,-202,3xm-28,256r175,-505v93,1,160,2,203,2v34,0,98,-1,193,-2r-301,504v-59,-1,-103,-2,-132,-2v-37,0,-83,1,-138,3","w":604},"<":{"d":"953,-1329r0,363r-503,274r502,276r1,360r-887,-485r0,-304","w":1019},"=":{"d":"120,-1020r575,4r576,-4v-7,71,-11,154,-14,249v-191,-2,-382,-3,-575,-3v-193,0,-385,1,-575,3v6,-71,10,-154,13,-249xm98,-635v191,2,383,3,575,3v193,0,385,-1,576,-3v-7,71,-11,154,-13,249v-191,-3,-382,-4,-575,-4v-193,0,-385,1,-576,4v6,-71,10,-154,13,-249"},">":{"d":"66,-56r0,-362r504,-275r-502,-276r-2,-360r887,485r0,304","w":1019},"?":{"d":"578,-946v58,-105,-75,-148,-198,-148v-94,0,-203,20,-326,60r43,-222v5,-26,10,-61,16,-103v352,-51,756,-70,907,157v63,95,35,237,-16,316v-79,123,-211,209,-291,320v-29,40,-34,71,-44,136v-67,-2,-128,-3,-182,-3v-53,0,-117,1,-193,2v3,-173,33,-247,117,-333v57,-59,127,-110,167,-182xm248,0r26,-336v85,1,154,2,208,2v58,0,126,-1,204,-2v-7,76,-11,141,-13,194v-2,53,-4,101,-7,142v-90,-1,-157,-2,-202,-2v-47,0,-119,1,-216,2","w":1069},"@":{"d":"728,-338v-139,5,-235,-109,-232,-255v3,-163,108,-331,238,-382v163,-64,367,-56,578,-18r-76,371v-9,44,-1,94,45,88v137,-17,236,-170,236,-332v0,-278,-244,-354,-524,-357v-324,-4,-552,137,-655,365v-37,81,-55,165,-55,252v2,319,221,465,545,464v182,-2,296,-26,420,-97v9,53,19,104,31,155v-125,73,-269,110,-462,110v-424,0,-717,-193,-717,-613v0,-516,363,-804,902,-804v386,0,697,154,697,526v0,249,-160,414,-347,489v-133,54,-346,64,-393,-62v-66,64,-118,96,-231,100xm751,-623v-4,86,82,126,149,80v85,-58,89,-146,115,-281v-156,-37,-257,65,-264,201","w":1785},"A":{"d":"-79,0r83,-144r517,-974r122,-247v117,1,203,2,257,2v94,0,181,-1,261,-2r146,417r297,802r58,146v-115,-1,-185,-2,-210,-2v-56,0,-138,1,-247,2v-29,-110,-72,-239,-127,-388r-504,0v-58,117,-118,247,-180,388v-124,-1,-200,-2,-228,-2v-51,0,-132,1,-245,2xm695,-679r311,0v-77,-235,-120,-365,-127,-389v-44,98,-81,178,-112,241","w":1667},"B":{"d":"1084,-701v172,25,277,128,277,317v0,216,-130,343,-319,368v-261,35,-642,11,-938,16v43,-424,55,-931,56,-1365v89,2,159,3,211,3r503,-9v197,-3,295,12,388,96v54,49,86,136,86,233v0,195,-102,300,-264,341xm935,-978v6,-161,-213,-116,-373,-123r-12,268r142,0v147,5,238,-19,243,-145xm948,-430v0,-109,-73,-132,-198,-132r-211,0r-12,288r192,0v146,2,229,-29,229,-156","w":1453},"C":{"d":"982,-1082v-279,0,-469,167,-475,439v-3,160,82,268,193,321v167,80,396,40,582,-11v-8,39,-18,95,-29,165v-11,70,-19,124,-23,163v-377,60,-724,36,-940,-143v-139,-115,-216,-265,-216,-497v0,-390,233,-620,539,-705v231,-64,409,-49,678,-3r15,319v-127,-30,-200,-48,-324,-48","w":1373},"D":{"d":"367,-1362v310,4,678,-51,889,73v167,98,267,289,267,544v0,366,-154,618,-434,704v-268,82,-642,25,-987,41v44,-435,59,-900,63,-1365v78,2,145,3,202,3xm1090,-732v0,-231,-106,-346,-352,-346v-48,0,-105,2,-170,6r-34,771v176,12,347,3,438,-90v72,-74,118,-203,118,-341","w":1584},"E":{"d":"99,0v44,-428,69,-928,70,-1365v157,1,348,2,571,2v206,0,388,-1,545,-2r-15,300v-129,-5,-237,-8,-324,-8v-96,0,-160,1,-194,1v-34,0,-87,1,-158,4r-12,229v79,2,170,3,275,3v37,0,137,-2,298,-7v-7,85,-13,187,-19,305v-115,-1,-204,-2,-266,-2v-92,0,-195,2,-309,7r-12,243r533,-8v31,-1,82,-3,154,-8v-8,99,-15,201,-20,306r-1117,0","w":1350},"F":{"d":"104,0v46,-401,60,-946,63,-1365v201,1,387,2,560,2v174,0,341,-1,502,-2v-11,153,-16,254,-16,301r-227,-5r-396,2r-9,233r307,3v47,0,118,-1,214,-3v-7,126,-11,225,-11,296v-107,-3,-187,-5,-239,-5v-88,0,-184,2,-288,5r-11,538r-215,-2v-17,0,-95,1,-234,2","w":1257},"G":{"d":"507,-616v-4,224,140,347,361,348v59,0,124,-9,195,-26r11,-217v-43,-2,-69,-3,-77,-3r-106,1r10,-181v1,-25,2,-59,2,-102v91,1,178,2,261,2v141,0,252,-1,332,-2v-9,91,-17,221,-26,388v-9,167,-15,294,-17,379v-420,81,-1020,102,-1235,-171v-82,-104,-144,-260,-144,-437v0,-306,169,-537,392,-653v253,-131,628,-120,974,-48v0,97,4,206,13,325v-134,-47,-261,-80,-429,-80v-313,0,-511,168,-517,477","w":1598},"H":{"d":"104,0r39,-546r18,-398r7,-325r-1,-96v105,1,183,2,235,2v41,0,111,-1,212,-2v-16,191,-26,360,-31,507r544,-1r14,-412v0,-18,-1,-49,-2,-94r237,2v25,0,95,-1,210,-2v-24,343,-39,598,-46,765v-7,167,-10,367,-10,600r-218,-2v-33,0,-111,1,-234,2v17,-159,28,-343,34,-554r-545,0r-17,554r-232,-2v-29,0,-101,1,-214,2","w":1676},"I":{"d":"104,0v39,-535,58,-947,58,-1236r-1,-129v117,1,195,2,234,2v18,0,90,-1,215,-2v-12,150,-22,292,-29,426v-9,187,-16,361,-20,523v-4,162,-6,301,-6,416r-205,-2v-40,0,-122,1,-246,2","w":700},"J":{"d":"-45,-365v121,44,186,71,312,73v126,2,207,-63,225,-171v33,-195,41,-664,39,-902v107,1,178,2,213,2v44,0,119,-1,226,-2r-30,442v-7,131,-13,270,-16,417v-6,218,-3,302,-101,395v-185,175,-528,159,-845,80v-6,-114,-14,-225,-23,-334","w":1057},"K":{"d":"99,0v40,-367,60,-874,71,-1279r0,-86v111,1,188,2,230,2v28,0,100,-1,216,-2r-47,747r-24,618r-217,-2v-31,0,-107,1,-229,2xm600,-720r224,-305r181,-254r56,-86v124,1,208,2,252,2v12,0,92,-1,239,-2r-422,533r-79,107r74,118r418,607r-246,-2v-53,0,-144,1,-271,2v-86,-162,-228,-402,-426,-720","w":1567},"L":{"d":"90,0v50,-453,73,-910,78,-1365v91,1,171,2,241,2v47,0,115,-1,204,-2r-24,362r-30,566r-4,139v115,2,189,3,224,3v175,0,308,-2,398,-7r-22,302v-175,-1,-342,-2,-501,-2v-215,0,-403,1,-564,2","w":1200},"M":{"d":"1372,0v9,-75,33,-777,32,-861v0,-27,-1,-65,-2,-114r-131,407r-188,568v-87,-1,-146,-2,-179,-2v-41,0,-105,1,-190,2r-123,-550r-81,-335v-3,-17,-9,-46,-16,-88r-25,277r-33,568r-3,128v-92,-1,-151,-2,-176,-2v-35,0,-95,1,-180,2r25,-202r62,-701r31,-462v123,1,219,2,289,2v58,0,147,-1,266,-2v20,175,89,361,124,529v14,63,35,170,64,323v29,-105,57,-194,80,-270v32,-104,129,-359,158,-445v10,-30,23,-76,40,-137v100,1,198,2,294,2v65,0,156,-1,272,-2v-13,225,-21,418,-25,579v-9,316,-13,533,-13,652v0,25,1,69,2,134v-88,-1,-150,-2,-185,-2v-51,0,-114,1,-189,2","w":1886},"N":{"d":"101,0r20,-210r39,-712r11,-287r0,-156v103,1,195,2,274,2v57,0,136,-1,239,-2r428,776r59,114v7,-112,15,-269,23,-471v8,-202,11,-342,11,-419v82,1,148,2,197,2v23,0,88,-1,196,-2r-24,298r-45,828r-6,239v-87,-1,-168,-2,-243,-2v-63,0,-149,1,-260,2r-77,-142r-168,-285r-153,-268v-31,-54,-62,-113,-95,-178r-21,474r-10,399v-83,-1,-146,-2,-189,-2v-37,0,-105,1,-206,2","w":1681},"O":{"d":"74,-655v0,-488,361,-730,852,-736v355,-4,622,151,733,398v76,169,69,419,-5,591v-118,273,-394,426,-776,428v-365,2,-652,-153,-756,-410v-33,-81,-48,-172,-48,-271xm1281,-702v0,-230,-142,-388,-373,-388v-247,0,-398,183,-401,429v-3,231,156,381,381,381v241,0,393,-182,393,-422","w":1774},"P":{"d":"868,-952v6,-157,-179,-135,-324,-123v-9,129,-15,272,-20,429v-9,287,-13,459,-13,516r0,130r-199,-2v-28,0,-97,1,-208,2r20,-256r26,-500r12,-468v0,-29,0,-76,-1,-141v88,2,159,3,212,3v255,0,595,-53,753,62v93,68,154,172,154,324v0,335,-280,514,-638,454v-9,-55,-50,-223,-66,-272v29,6,60,9,92,9v121,4,196,-62,200,-167","w":1307},"Q":{"d":"1759,-343v-13,53,-23,102,-31,149r-29,162v-396,48,-998,127,-1303,-57v-190,-114,-322,-283,-322,-572v0,-368,210,-572,494,-674v191,-68,462,-75,670,-11v192,59,333,184,416,349v104,207,43,485,-68,612v-24,28,-50,60,-83,93v125,-18,145,-23,256,-51xm1279,-702v0,-230,-141,-386,-370,-386v-247,0,-417,179,-417,422v0,238,158,383,386,383v244,0,401,-172,401,-419","w":1807},"R":{"d":"968,-943v0,-173,-229,-138,-408,-136v-9,137,-16,303,-23,500v-7,197,-11,390,-13,579v-111,-1,-184,-2,-217,-2v-39,0,-108,1,-209,2v50,-419,62,-909,65,-1365v83,2,151,4,202,3r419,-9v333,-6,597,53,597,367v0,237,-129,331,-318,401r99,235r166,368v-110,-1,-184,-2,-222,-2v-48,0,-127,1,-236,2r-87,-284r-174,-482v172,34,359,-13,359,-177","w":1435},"S":{"d":"1035,-374v0,281,-240,400,-538,400v-108,0,-244,-16,-409,-47v-9,-142,-19,-256,-30,-341v118,53,220,86,353,89v107,2,214,-29,185,-133v-9,-31,-32,-54,-59,-78r-280,-245v-78,-78,-139,-142,-139,-281v0,-273,229,-381,519,-381v113,0,235,13,368,39v2,46,4,88,7,126v3,38,9,106,19,202v-97,-40,-190,-64,-299,-66v-97,-2,-220,47,-173,140v65,130,236,197,342,311v67,73,134,135,134,265","w":1132},"T":{"d":"404,0v33,-324,53,-681,60,-1070r-426,11r11,-306r1279,0r-13,303v-143,-7,-260,-10,-353,-10r-70,0v-10,118,-18,227,-23,327v-7,143,-13,282,-17,417v-4,135,-6,245,-6,328v-109,-1,-180,-2,-212,-2v-29,0,-105,1,-230,2","w":1300},"U":{"d":"160,-1365v104,1,177,2,220,2v53,0,124,-1,213,-2r-43,650v-6,165,-19,269,46,359v67,94,309,92,377,0v29,-39,53,-82,61,-148v28,-226,50,-586,55,-861v101,1,180,2,238,2r203,-2r-50,743v-8,238,-7,325,-97,442v-233,301,-1165,288,-1258,-100v-52,-216,6,-442,17,-690","w":1592},"V":{"d":"463,0r-37,-122r-244,-703r-192,-540v91,1,171,2,242,2v43,0,111,-1,204,-2v15,59,27,104,36,135r215,690v15,49,33,114,54,193r46,-115r369,-812v8,-18,20,-48,37,-91v97,1,174,2,233,2v37,0,109,-1,218,-2r-231,444r-345,684r-112,237v-112,-1,-192,-2,-240,-2v-45,0,-129,1,-253,2","w":1543},"W":{"d":"369,0r-71,-366r-163,-747r-59,-252v84,1,152,2,204,2v59,0,127,-1,204,-2v18,109,32,188,43,239r84,403v17,87,37,192,58,317r33,-140r119,-462r82,-357v91,1,169,2,232,2v69,0,146,-1,231,-2r63,421r87,536r62,-224r172,-539r57,-194r399,0r-388,1162r-62,203v-100,-1,-187,-2,-262,-2v-79,0,-166,1,-261,2r-111,-614r-28,-230r-62,260r-161,584v-101,-1,-184,-2,-251,-2v-71,0,-154,1,-251,2","w":2225},"X":{"d":"-93,0r285,-372r259,-356r-118,-199r-278,-438v86,1,174,2,264,2v71,0,148,-1,229,-2v29,58,64,121,104,189v40,68,71,126,94,176v27,-46,63,-104,109,-172v46,-68,86,-132,121,-193v71,1,148,2,231,2v54,0,131,-1,230,-2r-483,665v108,184,255,417,440,700v-105,-1,-184,-2,-237,-2v-88,0,-175,1,-261,2v-26,-53,-63,-120,-110,-202v-47,-82,-87,-157,-122,-226v-64,112,-202,303,-285,428v-97,-1,-174,-2,-231,-2v-63,0,-143,1,-241,2","w":1403},"Y":{"d":"389,0v11,-83,39,-456,38,-549r-458,-816v101,1,184,2,249,2v63,0,138,-1,225,-2v51,132,170,351,220,486v77,-135,138,-241,185,-317v47,-76,80,-132,100,-169v85,1,166,2,244,2v41,0,116,-1,225,-2r-439,647v-98,164,-130,162,-133,233r-18,485v-94,-1,-167,-2,-218,-2v-53,0,-126,1,-220,2","w":1321},"Z":{"d":"41,0v8,-137,12,-239,12,-304r59,-58r517,-558r135,-155r-297,-2v-105,0,-217,4,-334,11v7,-92,12,-195,7,-299v189,1,390,2,603,2v220,0,410,-1,569,-2r-13,300r-85,84r-626,685r279,0r385,-11v-7,119,-12,221,-15,307r-1196,0","w":1365},"[":{"d":"635,244r-12,224v-71,-1,-161,-2,-268,-2v-107,0,-197,1,-268,2v24,-309,43,-612,57,-907v14,-295,25,-604,32,-926v71,1,161,2,270,2v109,0,199,-1,270,-2v-5,32,-12,186,-12,225v-76,-4,-131,-4,-207,0r-31,506r-23,497r-12,381v76,4,129,4,204,0","w":762},"\\":{"d":"1065,468r-129,-2v-20,0,-58,1,-114,2r-126,-299r-678,-1534v48,1,85,2,111,2v23,0,60,-1,112,-2r150,341r566,1259","w":888},"]":{"d":"82,-1141r11,-224v76,1,165,2,268,2v103,0,192,-1,269,-2r-38,547r-14,245r-24,564r-13,477v-107,-1,-197,-2,-270,-2v-74,0,-164,1,-270,2v4,-34,13,-186,12,-225v69,4,138,4,206,0v33,-470,55,-931,66,-1384v-76,-4,-127,-4,-203,0","w":762},"^":{"d":"334,-697r-319,0r293,-678r403,0r293,678r-318,0r-176,-431","w":1020},"_":{"d":"-2,103r1024,0r0,216r-1024,0r0,-216","w":1019},"`":{"d":"714,-1164v-69,-1,-119,-2,-149,-2v-43,0,-95,1,-158,2r-97,-125r-80,-97v83,1,151,2,202,2v67,0,133,-1,200,-2","w":1024},"a":{"d":"728,-722v24,-73,-42,-105,-121,-105v-115,0,-256,32,-425,97v13,-66,21,-111,24,-136r16,-118v192,-42,357,-63,495,-63v225,0,425,50,424,281v0,37,-5,121,-15,252v-10,131,-18,302,-23,514v-65,-1,-130,-2,-195,-2v-63,0,-129,1,-200,2v9,-73,20,-225,31,-454v-93,55,-254,49,-305,140v-45,82,47,140,149,118v16,-3,38,-8,66,-17v-19,51,-42,126,-69,225v-57,9,-112,14,-163,14v-227,0,-378,-102,-378,-300v0,-122,72,-201,150,-254v114,-79,339,-96,493,-150v22,-8,39,-24,46,-44","w":1240},"b":{"d":"787,26v-159,0,-247,-62,-321,-154r-4,128v-71,-1,-131,-2,-179,-2v-39,0,-106,1,-199,2v19,-210,35,-455,49,-734v14,-279,21,-490,21,-631v77,1,150,2,217,2v66,0,131,-1,194,-2v-15,104,-25,218,-32,343v101,-16,143,-24,237,-25v328,-3,510,172,510,493v0,325,-165,580,-493,580xm878,-531v2,-139,-79,-234,-219,-232v-44,0,-95,7,-154,22v-5,111,-8,178,-8,203v-6,163,44,270,184,270v138,0,195,-124,197,-263","w":1340},"c":{"d":"461,-501v0,183,128,256,311,226v72,-12,101,-19,168,-44r-50,307v-240,59,-523,52,-672,-76v-149,-128,-199,-417,-116,-644v76,-206,247,-320,527,-315v126,2,200,12,321,40r19,304v-95,-33,-180,-50,-253,-50v-161,1,-255,91,-255,252","w":1036},"d":{"d":"1287,-1365v-33,311,-73,1049,-73,1365v-71,-1,-131,-2,-178,-2v-53,0,-118,1,-194,2r6,-127v-84,88,-184,153,-349,153v-280,0,-439,-188,-439,-471v0,-285,152,-509,384,-571v135,-36,268,-38,427,-16v5,-79,9,-190,11,-333v82,1,149,2,201,2v67,0,135,-1,204,-2xm451,-473v-3,119,64,205,178,205v142,0,194,-126,213,-264v7,-55,12,-135,15,-240v-35,-8,-69,-12,-100,-12v-198,0,-301,131,-306,311","w":1351},"e":{"d":"455,-473v-20,223,202,267,415,223v56,-12,125,-27,208,-52v-9,40,-25,137,-50,290v-244,52,-560,64,-746,-37v-138,-75,-222,-223,-222,-430v0,-352,216,-569,583,-569v313,0,524,139,526,447v0,38,-4,80,-13,127xm793,-626v17,-138,-77,-222,-206,-180v-76,25,-112,88,-124,180r330,0","w":1212},"f":{"d":"677,-1159v-89,-2,-124,49,-114,147r230,0v-5,77,-11,169,-16,278r-208,0r-33,734v-79,-1,-147,-2,-204,-2v-57,0,-124,1,-200,2v13,-128,28,-373,46,-734r-122,0v4,-36,15,-236,15,-278r142,0v-2,-125,-4,-233,43,-302v97,-142,389,-131,586,-73v2,106,6,194,13,264v-66,-24,-125,-36,-178,-36","w":811},"g":{"d":"268,-904v230,-191,633,-157,994,-87r-24,330r-23,426v-12,189,14,406,-60,538v-144,256,-664,191,-970,118r-17,-297v137,47,252,79,398,79v157,0,242,-69,252,-215v3,-28,5,-67,7,-116v-84,79,-176,137,-334,137v-268,0,-431,-185,-431,-453v0,-209,86,-359,208,-460xm451,-473v-4,116,65,199,175,199v111,0,183,-91,205,-194v13,-60,22,-151,24,-273v-41,-8,-78,-12,-111,-12v-181,-2,-288,111,-293,280","w":1350},"h":{"d":"889,-565v1,-113,-45,-170,-144,-170v-131,0,-190,77,-216,196v-32,146,-36,312,-43,539v-67,-1,-130,-2,-189,-2v-59,0,-131,1,-215,2v11,-99,18,-181,23,-245v9,-134,19,-290,29,-467v6,-117,11,-230,14,-338v3,-108,4,-213,4,-315v85,1,154,2,207,2v72,0,140,-1,204,-2r-21,242v-3,40,-9,121,-16,243v80,-114,188,-170,375,-170v228,0,400,89,396,320r-8,184r-27,442r0,104v-69,-1,-136,-2,-199,-2v-71,0,-144,1,-217,2v18,-136,42,-427,43,-565","w":1394},"i":{"d":"145,-1148v4,-79,6,-142,6,-188v0,-13,0,-31,-1,-54v81,1,148,2,203,2v75,0,141,-1,198,-2r-12,242v-66,-1,-129,-2,-190,-2v-63,0,-131,1,-204,2xm548,-1021v-34,297,-37,745,-38,1021v-79,-1,-148,-2,-205,-2v-57,0,-131,1,-223,2v41,-336,46,-639,54,-1021v87,1,156,2,208,2v47,0,115,-1,204,-2","w":639},"j":{"d":"145,-1151v7,-97,10,-177,11,-239v55,1,121,2,198,2v69,0,135,-1,196,-2v-7,97,-11,177,-13,239v-65,-2,-131,-3,-196,-3v-67,0,-133,1,-196,3xm539,-1021r-21,509r-12,587v-2,147,-13,256,-88,325v-133,124,-424,91,-641,54v-4,-73,-13,-171,-27,-296v150,52,320,32,342,-106v44,-278,38,-745,41,-1073v79,1,148,2,206,2v61,0,128,-1,200,-2","w":642},"k":{"d":"83,0v9,-85,17,-155,20,-208r27,-510v5,-107,8,-210,10,-308v3,-117,4,-230,4,-339v93,1,163,2,210,2v54,0,118,-1,192,-2v-15,175,-29,392,-42,651v-13,259,-19,497,-19,714v-77,-1,-143,-2,-196,-2v-61,0,-130,1,-206,2xm524,-574r172,-248r129,-199v92,1,162,2,209,2v65,0,143,-1,232,-2r-199,259v-47,59,-94,123,-143,192v47,86,159,276,337,570v-78,-1,-148,-2,-211,-2v-64,0,-137,1,-220,2r-119,-234v-6,-12,-52,-94,-137,-245","w":1277},"l":{"d":"86,-1r18,-215r39,-747r11,-402v93,1,162,2,209,2v61,0,128,-1,201,-2r-23,307r-37,756r-8,302","w":634},"m":{"d":"767,-580v-1,-94,-20,-156,-103,-156v-105,0,-133,97,-146,208v-15,122,-23,378,-25,528v-81,-1,-146,-2,-196,-2v-55,0,-124,1,-206,2r28,-482r16,-377r2,-162v73,1,138,2,194,2v63,0,125,-1,185,-2r-7,133v71,-101,164,-159,329,-159v158,0,250,51,303,161v69,-107,170,-161,333,-161v191,0,350,78,340,271r-24,458v-8,151,-12,257,-13,318v-61,-1,-121,-2,-178,-2v-70,0,-143,1,-220,2v7,-85,14,-190,21,-318v7,-128,10,-217,10,-266v0,-116,-60,-175,-157,-139v-116,78,-105,253,-111,455r-8,268v-71,-1,-136,-2,-193,-2v-59,0,-128,1,-207,2v10,-82,34,-493,33,-580","w":1909},"n":{"d":"887,-523v0,-130,-46,-202,-153,-202v-94,0,-160,68,-189,149v-44,122,-49,395,-55,576v-67,-1,-132,-2,-195,-2v-67,0,-139,1,-217,2v38,-292,59,-697,63,-1021v80,1,149,2,207,2v67,0,132,-1,194,-2r-10,136v84,-103,197,-162,379,-162v227,0,394,90,383,323r-25,526v-3,71,-5,137,-5,198v-67,-1,-130,-2,-189,-2v-79,0,-152,1,-217,2v10,-91,29,-428,29,-523","w":1392},"o":{"d":"657,26v-351,0,-597,-176,-597,-523v0,-360,261,-550,623,-550v343,0,586,175,586,520v0,361,-246,553,-612,553xm868,-531v1,-131,-65,-222,-192,-222v-146,0,-212,119,-215,268v-2,134,73,227,193,227v146,0,212,-124,214,-273","w":1329},"p":{"d":"1020,-12v-181,86,-421,15,-537,-89r-11,279v-5,128,-7,225,-7,290v-77,-1,-144,-2,-199,-2v-48,0,-117,1,-208,2v13,-137,23,-273,32,-409v15,-233,26,-427,32,-585v6,-158,8,-314,8,-469v297,-44,537,-84,813,-22v225,51,342,244,342,507v0,235,-104,422,-265,498xm894,-526v1,-141,-78,-239,-221,-237v-45,0,-97,8,-154,23v-14,73,-19,147,-20,228v-2,145,64,254,194,254v137,0,200,-124,201,-268","w":1345},"q":{"d":"823,-119v-87,86,-173,143,-333,145v-337,4,-496,-330,-402,-666v58,-208,208,-344,440,-384v253,-43,454,-21,737,22v-15,167,-28,322,-37,463v-9,141,-17,282,-22,423v-5,141,-9,335,-14,584v-63,-1,-130,-2,-200,-2v-59,0,-128,1,-209,2xm451,-450v-5,136,106,235,232,176v149,-69,146,-236,158,-468v-39,-7,-72,-11,-101,-11v-191,-3,-282,120,-289,303","w":1346},"r":{"d":"756,-719v-286,3,-265,292,-270,590v0,35,1,78,4,129v-65,-1,-130,-2,-195,-2v-65,0,-134,1,-208,2r31,-444r10,-255r-1,-322v81,1,145,2,192,2v55,0,119,-1,191,-2r-4,113v76,-94,177,-163,341,-129r12,334v-37,-11,-71,-16,-103,-16","w":880},"s":{"d":"885,-275v0,345,-488,332,-805,256r-29,-298v105,39,181,70,296,75v82,3,163,-29,127,-102v-117,-128,-350,-181,-350,-411v0,-210,178,-292,413,-292v93,0,211,12,355,36r16,281v-81,-32,-158,-48,-233,-48v-89,1,-161,9,-146,86v24,43,77,67,116,97v118,91,240,140,240,320","w":989},"t":{"d":"586,-481v-9,123,-3,212,104,212v59,0,73,-7,142,-25r-53,286v-109,24,-158,32,-262,34v-216,5,-350,-78,-336,-298r29,-459r-156,0r12,-275r166,0v4,-31,9,-98,15,-201r171,-35v31,-6,98,-21,200,-46v-5,87,-8,181,-10,282r228,0v-5,139,-8,230,-8,275r-230,0","w":872},"u":{"d":"509,-640v-28,199,-6,381,184,333v120,-30,145,-151,152,-301r19,-413v86,1,157,2,212,2v62,0,124,-1,187,-2v-15,169,-27,330,-36,483v-9,153,-15,332,-20,538v-76,-1,-139,-2,-190,-2v-63,0,-126,1,-189,2r-1,-137v-78,109,-183,163,-362,163v-235,0,-394,-111,-363,-367r16,-227v5,-83,9,-176,13,-277v3,-62,4,-121,4,-176v83,1,153,2,211,2v59,0,123,-1,194,-2","w":1345},"v":{"d":"363,0r-106,-328r-239,-693v76,1,147,2,212,2v68,0,132,-1,192,-2v11,46,34,126,67,241v33,115,70,252,110,411r26,-83r206,-569v72,1,140,2,204,2v66,0,135,-1,206,-2r-138,297r-257,590r-55,134v-79,-1,-148,-2,-208,-2v-65,0,-139,1,-220,2","w":1207},"w":{"d":"356,0v-147,-469,-260,-810,-338,-1021v65,1,131,2,197,2v62,0,121,-1,177,-2r142,524r24,103r66,-206r144,-421v65,1,131,2,198,2v71,0,134,-1,188,-2r138,560r13,67r216,-627v65,1,126,2,182,2v48,0,111,-1,190,-2r-368,863r-64,158v-69,-1,-128,-2,-176,-2v-53,0,-121,1,-205,2r-71,-289v-13,-55,-37,-161,-70,-316v-99,286,-171,488,-216,605v-70,-1,-127,-2,-170,-2v-50,0,-116,1,-197,2","w":1859},"x":{"d":"-20,0r228,-303r169,-232r-314,-486v97,1,181,2,251,2v88,0,160,-1,217,-2r135,294v51,-88,112,-186,182,-294v59,1,130,2,213,2v77,0,150,-1,219,-2r-160,210r-201,272v61,106,173,286,336,539v-75,-1,-150,-2,-223,-2v-89,0,-169,1,-240,2r-158,-330r-78,129r-127,201v-72,-1,-142,-2,-210,-2v-79,0,-158,1,-239,2","w":1301},"y":{"d":"-37,160v109,62,292,78,357,-27v27,-44,40,-57,56,-113r-188,-569r-161,-472v99,1,169,2,209,2v47,0,110,-1,191,-2r71,266v53,202,73,261,99,446r21,-80r56,-171r65,-182r108,-279v83,1,146,2,189,2v37,0,104,-1,200,-2r-193,436r-349,809v-81,213,-311,297,-606,250v-21,-3,-48,-9,-83,-17v-21,-159,-35,-258,-42,-297","w":1211},"z":{"d":"54,0v3,-74,5,-174,7,-300r71,-65r403,-390v-165,1,-305,6,-422,15r8,-281v80,1,232,2,455,2v178,0,316,-1,415,-2v-3,29,-8,135,-15,318r-462,432v65,2,157,3,278,3v47,0,102,-1,165,-4v-6,49,-13,140,-20,272v-86,-1,-233,-2,-440,-2v-203,0,-350,1,-443,2","w":1072},"{":{"d":"189,-117v20,-158,7,-249,-110,-279v4,-31,7,-66,8,-103v87,-29,126,-79,130,-198v5,-149,-5,-337,28,-463v50,-190,264,-206,517,-205v-5,28,-10,102,-15,222v-126,6,-188,28,-200,142v-19,170,29,438,-84,525v-11,9,-28,19,-51,30v77,32,102,102,102,213v0,42,-17,236,-19,333v-3,122,74,144,189,146r-14,222v-276,-2,-514,-23,-499,-282","w":885},"|":{"d":"327,-1365r365,0r0,1706r-365,0r0,-1706","w":1019},"}":{"d":"624,-663v0,101,46,145,116,162v-4,31,-7,66,-8,104v-89,26,-122,80,-130,194v-14,197,23,453,-84,563v-97,100,-250,105,-460,108v4,-28,9,-102,14,-222v132,-6,199,-33,202,-173r6,-245v5,-136,24,-241,128,-278v-78,-31,-101,-98,-103,-205v-1,-58,19,-288,19,-337v1,-120,-65,-150,-187,-151r12,-222v175,0,327,10,421,83v48,37,79,108,79,195v0,30,-25,393,-25,424","w":885},"~":{"d":"546,-514v-104,-32,-144,24,-186,106r-174,-147v64,-153,143,-328,368,-294v100,15,208,89,320,105v70,-5,100,-56,131,-115r175,146v-55,134,-94,223,-214,276v-152,67,-301,-41,-420,-77","w":1361},"\u20ac":{"d":"162,-911v103,-298,414,-480,807,-480v101,0,223,12,366,37r15,299v-135,-33,-242,-49,-320,-49v-181,0,-321,64,-420,193r674,0r-41,170r-713,0v-9,44,-11,74,-10,116r699,0r-41,170r-607,0v69,116,213,192,390,193v102,0,223,-18,364,-55r-53,311v-139,21,-266,31,-381,31v-376,0,-677,-171,-750,-480r-121,0r41,-170r58,0r4,-116r-103,0r41,-170r101,0","w":1395},"\u00a0":{"w":512}}});


/*!
 * The following copyright notice may not be removed under any circumstances.
 * 
 * Copyright:
 * Typeface: Copyright ©1995 International Typeface Corporation. Data: Copyright ©
 * 1995 Microsoft Corportation. All rights reserved.
 * 
 * Trademark:
 * ITC Eras is a registered trademark of International Typeface Corporation.
 */
Cufon.registerFont({"w":1249,"face":{"font-family":"Eras Demi ITC","font-weight":400,"font-stretch":"normal","units-per-em":"2048","panose-1":"2 11 8 5 3 5 4 2 8 4","ascent":"1638","descent":"-410","x-height":"24","bbox":"-293 -1561 2232 486.47","underline-thickness":"120","underline-position":"-94","unicode-range":"U+0020-U+20AC"},"glyphs":{" ":{"w":512},"!":{"d":"182,-399r26,-966v64,1,114,2,151,2v29,0,77,-1,145,-2r-21,275r-42,691v-48,-1,-87,-2,-117,-2v-43,0,-90,1,-142,2xm142,0r16,-260v76,1,128,2,157,2v21,0,70,-1,149,-2v-5,75,-10,161,-14,260r-150,-2v-30,0,-83,1,-158,2","w":641},"\"":{"d":"141,-997r6,-368v41,1,74,2,99,2v21,0,52,-1,95,-2v-13,119,-24,242,-33,368v-74,-4,-93,-4,-167,0xm426,-997r6,-368v41,1,74,2,99,2v21,0,52,-1,95,-2v-14,127,-25,250,-33,368v-74,-4,-93,-4,-167,0","w":700},"#":{"d":"296,-437r-231,2v13,-55,24,-114,34,-176r231,2r30,-168r-232,3v11,-46,23,-105,35,-176r229,2r74,-417v41,3,151,3,190,0r-78,418r209,0r74,-418v41,3,151,3,190,0v-14,71,-40,210,-77,417v141,-1,218,-2,229,-2v-17,75,-28,134,-34,176r-229,-3r-30,168r230,-2v-11,43,-22,102,-35,176r-228,-2r-77,437v-40,-3,-152,-3,-190,0r82,-438r-209,0r-78,438v-40,-3,-152,-3,-190,0xm546,-777r-32,169r210,0r31,-169r-209,0"},"$":{"d":"759,-1146v-123,0,-212,99,-154,212v28,54,80,96,123,136v106,100,175,169,207,206v69,80,119,199,76,328v-45,136,-134,201,-280,245r-2,110v0,23,1,59,2,106v-49,-1,-91,-2,-126,-2v-36,0,-81,1,-136,2v5,-64,7,-129,7,-195v-125,-14,-175,-27,-280,-65v-3,-119,-7,-202,-12,-251v119,59,225,88,317,88v131,0,232,-110,165,-231v-12,-22,-28,-40,-43,-54r-225,-214v-96,-93,-170,-153,-170,-315v0,-135,79,-228,170,-278v33,-17,82,-32,149,-47v4,-60,2,-131,1,-196v56,1,100,2,131,2v34,0,77,-1,130,-2v-5,70,-8,135,-8,195v89,10,124,18,202,40v2,65,7,146,15,244v-97,-43,-183,-64,-259,-64"},"%":{"d":"364,-503v-224,-2,-315,-167,-316,-392v-1,-174,60,-366,169,-432v56,-34,117,-53,186,-53v220,0,310,170,310,399v0,257,-94,480,-349,478xm492,-1177v-44,-75,-125,-83,-184,-22v-83,86,-107,378,-41,497v40,73,139,79,189,16v76,-96,105,-370,36,-491xm405,0r397,-695r374,-670v29,1,58,2,85,2v24,0,52,-1,83,-2r-274,477r-413,739r-78,149v-30,-1,-57,-2,-82,-2v-20,0,-51,1,-92,2xm1034,-378v0,-255,99,-486,353,-483v223,3,312,161,312,393v0,259,-86,485,-350,483v-226,-2,-315,-159,-315,-393xm1480,-658v-41,-77,-134,-83,-188,-18v-85,101,-116,427,-10,526v47,43,124,29,160,-17v76,-95,103,-369,38,-491","w":1742},"&":{"d":"1049,-441v29,-65,33,-130,38,-221v53,1,95,2,126,2v31,0,72,-1,121,-2v1,150,-37,290,-113,419r230,243v-71,-1,-126,-2,-165,-2v-52,0,-105,1,-158,2r-114,-119v-107,85,-226,142,-415,143v-284,1,-507,-133,-507,-403v0,-133,51,-214,131,-289v47,-44,121,-93,220,-146v-75,-111,-134,-242,-65,-384v59,-122,193,-191,375,-191v86,0,183,14,290,41r5,223v-75,-35,-119,-54,-206,-56v-130,-2,-237,81,-200,215v34,125,140,234,219,327v16,19,144,149,188,198xm374,-444v-77,246,278,339,458,204v14,-11,29,-25,46,-42r-225,-244r-89,-106v-93,60,-159,89,-190,188","w":1489},"'":{"d":"141,-997r6,-368v41,1,74,2,99,2v21,0,52,-1,95,-2v-13,119,-24,242,-33,368v-74,-4,-93,-4,-167,0","w":415},"(":{"d":"534,-1199v-131,448,-185,1156,-50,1658v-44,-1,-81,-2,-110,-2v-33,0,-72,1,-117,2v-53,-209,-104,-477,-104,-745v0,-388,106,-793,200,-1079v43,1,80,2,112,2v34,0,72,-1,114,-2","w":707},")":{"d":"77,459v161,-458,211,-1073,127,-1636r-30,-188v43,1,81,2,113,2v34,0,71,-1,112,-2v59,275,95,495,97,790v3,380,-93,756,-193,1034v-43,-1,-81,-2,-116,-2v-35,0,-72,1,-110,2","w":698},"*":{"d":"219,-816r183,-194r-241,-75v27,-49,50,-99,71,-150r234,105r-4,-259v37,1,65,2,85,2v23,0,51,-1,83,-2r-32,259r245,-100v14,45,31,95,51,150r-250,73r162,193r-63,47r-72,58r-152,-221r-179,221v-37,-35,-77,-71,-121,-107","w":1027},"+":{"d":"103,-612v5,-50,9,-111,10,-182v178,3,321,4,430,4v2,-47,7,-193,15,-438v40,3,153,3,192,0r-23,438r435,-4v-5,47,-8,108,-11,182v-187,-3,-332,-4,-433,-4v-3,53,-8,199,-15,438v-45,-3,-147,-3,-192,0r23,-438"},",":{"d":"-7,237r150,-434v73,1,124,2,154,2v24,0,73,-1,148,-2r-259,433v-42,-1,-74,-2,-95,-2v-26,0,-59,1,-98,3","w":530},"-":{"d":"-3,-428v6,-65,10,-132,11,-202v97,3,183,4,258,4v76,0,162,-1,259,-4v-5,57,-9,124,-11,202v-97,-3,-183,-5,-260,-5v-75,0,-160,2,-257,5","w":528},".":{"d":"106,0v3,-48,6,-138,11,-269r152,2v13,0,57,-1,131,-2r-14,269r-131,-2v-5,0,-55,1,-149,2","w":530},"\/":{"d":"-228,459r351,-678r452,-887r129,-259v43,1,73,2,90,2v20,0,50,-1,89,-2r-822,1622r-97,202v-39,-1,-70,-2,-91,-2v-19,0,-52,1,-101,2","w":878},"0":{"d":"90,-595v0,-430,146,-791,574,-794v363,-3,507,267,507,633v0,326,-92,620,-327,724v-79,35,-160,56,-249,56v-354,0,-505,-261,-505,-619xm860,-992v-32,-122,-136,-235,-278,-174v-176,76,-205,327,-209,582v-3,166,28,281,109,354v53,48,131,66,202,32v159,-76,203,-325,203,-565v0,-93,-11,-169,-27,-229"},"1":{"d":"507,0v9,-103,17,-219,23,-350r19,-400v7,-136,11,-253,13,-351r-68,43r-117,80v3,-42,7,-89,9,-141v2,-52,3,-92,3,-120v68,-43,136,-76,199,-126v39,1,87,2,143,2v55,0,106,-1,155,-2r-20,271r-40,795r-4,194r1,105v-45,-1,-95,-2,-148,-2v-62,0,-118,1,-168,2"},"2":{"d":"1087,-212r-17,212v-151,-1,-309,-2,-472,-2v-200,0,-367,1,-501,2r9,-207v214,-191,436,-419,603,-633v54,-69,85,-91,85,-180v0,-174,-232,-176,-409,-150v-55,8,-125,23,-211,45r19,-101v4,-24,10,-64,18,-121v331,-60,758,-91,895,143v80,137,-1,300,-66,391v-149,210,-356,426,-555,614r477,-3v35,-2,76,-5,125,-10"},"3":{"d":"1120,-392v0,442,-580,470,-995,364v-5,-91,-12,-169,-20,-235v139,50,267,75,385,75v168,0,314,-71,314,-232v0,-209,-269,-208,-485,-187v7,-77,12,-149,16,-218v202,30,451,3,451,-191v0,-184,-221,-184,-404,-164v-47,6,-107,17,-180,33r19,-83r24,-131v360,-48,874,-84,874,304v0,208,-127,300,-299,352v189,24,300,114,300,313"},"4":{"d":"945,-413v-7,91,-8,259,-9,356r0,57v-51,-1,-100,-2,-147,-2v-43,0,-95,1,-156,2v13,-134,21,-271,26,-412r-202,0r-368,6v3,-16,12,-224,11,-246r75,-95r303,-413r138,-205v81,1,147,2,199,2v51,0,109,-1,175,-2v-20,285,-32,533,-37,744v32,1,70,1,114,1v52,0,87,-1,105,-3r-3,214v-41,-3,-115,-4,-224,-4xm697,-611r22,-552r-200,285r-194,267r372,0"},"5":{"d":"1135,-452v0,445,-542,544,-975,433r-10,-143v-2,-21,-5,-50,-10,-85v125,36,231,54,320,54v182,-1,336,-87,336,-258v0,-259,-376,-211,-616,-176v28,-302,48,-548,61,-738v179,1,325,2,440,2v152,0,296,-1,432,-2v-5,53,-7,93,-8,120r-3,96v-135,-9,-401,-11,-575,-9r-32,346v331,-42,640,44,640,360"},"6":{"d":"853,-432v5,-178,-163,-234,-335,-195v65,-107,105,-175,119,-202v205,-40,390,18,465,159v34,64,53,132,53,208v0,313,-220,486,-547,486v-298,0,-514,-143,-514,-435v0,-273,119,-448,240,-648v61,-101,135,-202,215,-306r364,0v-208,244,-292,341,-425,600v-55,106,-97,197,-101,342v-3,140,92,242,227,241v150,-2,235,-102,239,-250"},"7":{"d":"195,0r232,-451r294,-583r59,-123v-60,-1,-109,-1,-147,-1v-167,0,-328,4,-482,12v5,-69,9,-142,11,-219r962,0v-4,73,-7,148,-9,225r-375,758v-61,125,-119,253,-176,382r-369,0"},"8":{"d":"88,-347v0,-206,117,-303,291,-351v-130,-53,-218,-130,-218,-301v0,-277,230,-390,516,-390v281,0,504,138,447,437v-26,135,-108,198,-232,250v161,38,263,114,263,299v0,362,-382,483,-749,407v-175,-36,-318,-142,-318,-351xm869,-1007v2,-116,-90,-187,-212,-187v-132,0,-232,91,-231,218v2,121,87,187,209,187v137,0,232,-82,234,-218xm873,-407v0,-132,-97,-194,-241,-194v-154,0,-259,81,-259,218v0,136,108,210,245,210v147,0,255,-87,255,-234"},"9":{"d":"661,-1389v344,-5,564,209,491,564v-68,329,-271,576,-436,825r-372,0v155,-196,277,-357,390,-552v70,-121,134,-225,134,-386v0,-148,-78,-245,-224,-245v-146,0,-245,95,-251,241v-8,190,183,246,357,192v-47,69,-91,139,-133,208v-288,47,-525,-91,-519,-368v6,-311,240,-474,563,-479"},":":{"d":"139,-748v3,-47,6,-137,11,-269r152,2v13,0,57,-1,132,-2r-15,269v-63,-1,-107,-2,-131,-2v-23,0,-72,1,-149,2xm106,0v3,-48,6,-138,11,-269r152,2v13,0,57,-1,131,-2r-14,269r-131,-2v-5,0,-55,1,-149,2","w":530},";":{"d":"139,-748v2,-33,6,-122,11,-269r151,2v14,0,58,-1,132,-2v-3,42,-8,132,-14,269v-64,-1,-108,-2,-131,-2v-23,0,-72,1,-149,2xm-7,237r150,-434v73,1,124,2,154,2v24,0,73,-1,148,-2r-259,433v-42,-1,-74,-2,-95,-2v-26,0,-59,1,-98,3","w":530},"<":{"d":"955,-1247r0,255r-614,303r613,304r1,253r-887,-450r0,-216","w":1024},"=":{"d":"129,-956v196,3,370,4,523,4v153,0,328,-1,525,-4v-5,39,-8,100,-11,182v-196,-3,-370,-4,-523,-4v-153,0,-328,1,-525,4v5,-56,9,-117,11,-182xm108,-632v191,3,365,4,524,4v161,0,336,-1,525,-4v-5,47,-8,107,-11,181v-189,-3,-363,-4,-524,-4v-161,0,-335,1,-524,4v5,-50,9,-110,10,-181"},">":{"d":"69,-132r0,-255r614,-303r-613,-304r-1,-253r887,450r0,216","w":1024},"?":{"d":"485,-1389v250,2,482,74,482,306v0,196,-134,290,-237,397v-106,111,-140,148,-156,337v-47,-1,-90,-2,-129,-2v-42,0,-87,1,-136,2v11,-99,3,-218,44,-286v62,-99,187,-203,259,-307v21,-31,30,-48,30,-89v0,-163,-231,-163,-396,-139v-50,8,-113,23,-188,45v21,-101,35,-178,42,-233v136,-21,264,-31,385,-31xm592,-253r-15,253v-71,-1,-121,-2,-149,-2v-28,0,-81,1,-158,2v7,-81,13,-165,19,-253v67,1,118,2,153,2v37,0,87,-1,150,-2","w":1012},"@":{"d":"732,-333v-149,0,-237,-101,-237,-256v0,-162,102,-326,225,-383v140,-65,351,-62,532,-22r-16,77r-60,359v-7,47,14,84,56,79v156,-18,260,-199,260,-384v0,-289,-237,-397,-530,-397v-334,0,-558,153,-659,395v-37,88,-56,179,-56,274v2,330,215,488,550,486v182,-1,287,-27,409,-103v9,38,19,77,31,116v-122,76,-261,116,-451,116v-407,0,-684,-190,-684,-598v0,-510,338,-815,869,-815v379,0,665,161,665,527v0,205,-113,368,-250,454v-78,49,-158,75,-241,75v-87,-1,-162,-34,-172,-111v-65,72,-121,111,-241,111xm685,-609v-1,78,43,135,120,135v97,0,165,-82,187,-172v9,-38,24,-112,40,-222v-202,-49,-344,78,-347,259","w":1725},"A":{"d":"1190,0v-30,-115,-121,-377,-163,-485r-526,0r-228,485r-163,-2v-31,0,-88,1,-173,2r244,-455r263,-505v82,-156,150,-291,204,-405v87,1,148,2,184,2v63,0,125,-1,186,-2r143,409r311,846r43,110r-150,-2v-35,0,-93,1,-175,2xm590,-693r383,0r-157,-462","w":1542},"B":{"d":"970,-705v170,31,277,131,277,325v0,209,-135,333,-319,364v-140,23,-591,12,-808,16v38,-399,53,-951,54,-1365v84,1,154,2,209,2r410,-6v277,-9,437,73,437,319v0,197,-105,296,-260,345xm939,-1010v0,-130,-90,-165,-238,-165r-240,0r-14,376r161,0v119,-1,140,2,213,-25v71,-26,118,-93,118,-186xm650,-196v187,4,305,-48,305,-218v0,-146,-99,-190,-265,-190r-252,0r-15,408r227,0","w":1339},"C":{"d":"390,-654v0,296,180,461,484,464v101,0,221,-20,361,-60v-15,78,-27,157,-38,238v-222,38,-455,58,-659,-6v-265,-84,-460,-287,-453,-634v9,-481,322,-737,805,-737v108,0,226,12,354,37r13,233v-180,-49,-358,-78,-537,-19v-193,64,-330,236,-330,484","w":1329},"D":{"d":"1182,-1302v188,91,292,284,292,558v0,371,-191,651,-498,715v-259,54,-540,18,-857,29r27,-348r20,-435r13,-433v1,-19,1,-68,1,-149v357,19,750,-59,1002,63xm426,-213v228,7,455,11,576,-102v101,-94,164,-232,167,-418v3,-189,-68,-324,-185,-385v-110,-57,-330,-43,-517,-39","w":1546},"E":{"d":"117,0r29,-383r21,-443r13,-403r0,-136r996,0r-12,216r-203,-8r-343,-1v-30,0,-76,2,-137,4r-16,355v91,2,183,3,276,3v64,0,172,-2,324,-6v-5,61,-10,133,-14,218v-178,-2,-280,-3,-306,-3v-79,0,-177,2,-294,6r-16,374r330,-1r217,-4r145,-7v-7,77,-11,150,-14,219r-996,0","w":1251},"F":{"d":"120,0v39,-407,51,-922,56,-1365r949,0v-7,99,-11,171,-12,216r-279,-6r-359,1r-12,359r170,3r385,-3v-5,77,-8,148,-9,212v-116,-3,-208,-4,-277,-4v-87,0,-180,1,-281,4r-12,583r-153,-2v-8,0,-63,1,-166,2","w":1171},"G":{"d":"974,-1178v-359,2,-584,199,-584,550v0,189,70,319,207,388v147,74,365,65,532,14r16,-351r-249,2v6,-89,9,-158,9,-205v92,1,180,2,264,2v110,0,202,-1,275,-2v-17,223,-30,471,-37,744v-376,81,-863,97,-1109,-97v-177,-139,-270,-475,-172,-754v112,-317,384,-502,818,-502v129,0,278,17,446,52v1,76,4,156,11,239v-157,-53,-300,-80,-427,-80","w":1561},"H":{"d":"120,0r23,-359v13,-196,22,-377,27,-545v5,-168,8,-285,8,-351r-1,-110v79,1,134,2,167,2v25,0,75,-1,151,-2r-26,451r-3,104r682,-1r12,-270r4,-284r167,2v15,0,65,-1,150,-2r-33,545r-15,404r-6,416r-156,-2v-19,0,-75,1,-166,2v17,-189,28,-387,33,-595r-683,0r-14,368r-4,227r-164,-2v-18,0,-69,1,-153,2","w":1590},"I":{"d":"120,0v16,-229,29,-465,39,-706v10,-241,15,-425,15,-552r-1,-107r167,2v9,0,60,-1,153,-2v-27,351,-45,806,-52,1365r-147,-2v-25,0,-83,1,-174,2","w":602},"J":{"d":"-44,-261v154,53,314,101,452,20v63,-37,85,-96,95,-191v27,-247,33,-631,34,-933v79,1,130,2,153,2v27,0,80,-1,160,-2r-27,429v-5,103,-9,245,-17,425v-8,187,2,248,-51,345v-121,220,-471,219,-781,144v-4,-77,-10,-156,-18,-239","w":954},"K":{"d":"118,0v11,-131,20,-243,25,-338v8,-135,17,-327,27,-574v7,-169,10,-289,10,-360r0,-93v83,1,137,2,163,2v17,0,69,-1,154,-2r-31,540r-27,647r-3,178r-155,-2v-19,0,-73,1,-163,2xm481,-722r227,-279r207,-263r74,-101r180,2v7,0,65,-1,172,-2r-460,541r-78,97r63,90r489,637r-178,-2v-31,0,-96,1,-195,2r-128,-195r-272,-388","w":1374},"L":{"d":"111,0v40,-390,65,-940,69,-1365v68,1,125,2,170,2v31,0,80,-1,147,-2v-9,120,-17,257,-24,410r-20,401v-6,115,-10,229,-13,342r490,0v51,-1,101,-2,150,-5v-6,65,-11,138,-16,217r-953,0","w":1100},"M":{"d":"93,0r26,-226r66,-794r23,-345v95,1,165,2,209,2v35,0,100,-1,193,-2v46,257,143,479,209,726r76,286r134,-367r215,-532r36,-113v79,1,150,2,212,2v41,0,107,-1,198,-2v-9,192,-16,405,-21,637v-5,232,-7,405,-7,520v0,55,1,125,2,208v-66,-1,-111,-2,-135,-2v-35,0,-81,1,-138,2v4,-68,7,-124,8,-168r17,-595r2,-329r-412,1092v-65,-1,-109,-2,-133,-2v-30,0,-77,1,-141,2r-172,-616r-118,-390r-19,-82r-13,128r-54,824v-1,31,-2,76,-3,136r-129,-2v-22,0,-66,1,-131,2","w":1815},"N":{"d":"118,0v13,-119,22,-253,29,-402r23,-490v8,-177,12,-335,12,-473v77,1,143,2,197,2v40,0,98,-1,175,-2v75,131,179,303,312,514r321,525r37,-928v1,-22,1,-59,1,-111v63,1,110,2,142,2v13,0,59,-1,140,-2r-25,367r-31,628r-12,370v-69,-1,-128,-2,-177,-2v-39,0,-101,1,-188,2v-78,-141,-166,-271,-251,-404r-220,-348r-166,-272v-5,108,-14,308,-25,601v-5,119,-8,260,-11,423v-63,-1,-108,-2,-136,-2v-22,0,-71,1,-147,2","w":1611},"O":{"d":"1637,-712v0,477,-310,736,-792,736v-450,0,-760,-223,-760,-676v0,-231,95,-428,227,-544v187,-164,555,-245,868,-152v180,54,333,187,403,349v36,82,54,178,54,287xm1332,-701v0,-292,-163,-475,-454,-475v-310,0,-484,215,-488,520v-3,284,185,464,466,464v305,0,476,-203,476,-509","w":1709},"P":{"d":"664,-1163r-214,4v-8,131,-14,256,-18,375r-12,382v-4,135,-6,235,-6,298v0,24,0,59,1,104r-145,-2v-19,0,-69,1,-150,2r18,-237r25,-525r13,-486v0,-26,0,-65,-1,-117v85,1,155,2,208,2v174,1,427,-25,562,14v139,41,230,163,230,341v0,329,-290,495,-641,430v-15,-69,-31,-134,-50,-195v203,46,405,-22,400,-221v-3,-126,-78,-172,-220,-169","w":1206},"Q":{"d":"1657,-261r-43,229v-200,31,-507,54,-720,56v-366,3,-630,-134,-749,-383v-80,-168,-77,-426,-1,-601v115,-266,377,-429,750,-429v341,0,579,153,687,398v92,208,47,501,-59,637v-49,63,-88,98,-151,151v150,-18,141,-19,286,-58xm1331,-703v0,-293,-163,-472,-451,-472v-304,0,-500,212,-500,512v0,295,181,469,465,469v300,0,486,-203,486,-509","w":1730},"R":{"d":"942,-985v0,-215,-270,-176,-483,-176r-18,411r-19,750r-155,-2v-25,0,-75,1,-151,2v39,-365,60,-972,60,-1365v80,1,147,2,201,2r347,-6v290,-7,510,71,510,343v0,199,-106,315,-260,366v-29,9,-69,21,-118,34r68,132r226,403v5,9,21,40,48,91v-81,-1,-135,-2,-161,-2v-32,0,-88,1,-169,2r-111,-266r-241,-489v214,43,426,-26,426,-230","w":1292},"S":{"d":"951,-342v0,309,-314,401,-644,355v-57,-7,-131,-21,-224,-42v-5,-101,-12,-184,-21,-248v131,59,249,89,356,89v138,0,270,-74,216,-215v-10,-26,-33,-50,-60,-77v-75,-75,-318,-262,-397,-370v-70,-96,-80,-256,-7,-364v77,-115,220,-177,420,-175v95,0,203,12,322,35v3,69,10,149,20,238v-104,-40,-200,-60,-288,-60v-134,0,-279,92,-207,216v115,198,376,278,484,486v19,38,30,79,30,132","w":1050},"T":{"d":"409,0r22,-292r22,-435r14,-428r-197,2r-231,7v5,-96,8,-169,9,-219r1154,0v-7,94,-10,166,-10,217v-121,-6,-236,-9,-347,-9r-77,0r-12,183r-29,704r-3,270r-152,-2v-17,0,-71,1,-163,2","w":1180},"U":{"d":"435,-558v-17,250,94,363,321,363v183,0,300,-83,324,-240v39,-258,48,-623,56,-930v75,1,131,2,168,2r146,-2r-31,482v-22,235,3,535,-93,685v-131,205,-503,263,-818,199v-238,-48,-396,-184,-379,-495r37,-674v3,-59,5,-125,7,-197v77,1,130,2,157,2v34,0,85,-1,152,-2","w":1538},"V":{"d":"493,0r-38,-126r-260,-743r-178,-496v69,1,126,2,171,2v28,0,77,-1,147,-2r60,203r242,733r57,187r54,-122r426,-896r44,-105v73,1,128,2,166,2v23,0,75,-1,157,-2r-86,160r-547,1080r-58,125v-87,-1,-145,-2,-174,-2v-26,0,-87,1,-183,2","w":1456},"W":{"d":"516,0r-509,-1365v64,1,116,2,156,2v44,0,96,-1,156,-2r280,828r117,326v25,-49,63,-128,114,-237v51,-109,88,-190,110,-242r-116,-339r-124,-336v57,1,106,2,149,2v47,0,97,-1,149,-2v31,121,66,240,104,358v56,-121,107,-240,154,-358v58,1,105,2,140,2v41,0,87,-1,140,-2r-158,327v-63,133,-114,243,-153,332v15,48,42,129,82,244v40,115,69,196,88,243r269,-572r259,-574v64,1,115,2,154,2v43,0,94,-1,155,-2r-188,373r-393,806r-88,186v-71,-1,-132,-2,-183,-2v-53,0,-115,1,-184,2v-39,-135,-83,-267,-130,-397v-63,130,-123,262,-180,397v-71,-1,-133,-2,-185,-2v-55,0,-116,1,-185,2","w":2156},"X":{"d":"-68,0r193,-246r270,-355r85,-118r-122,-197r-295,-449v65,1,128,2,188,2v48,0,103,-1,165,-2v70,135,205,330,271,453v37,-56,89,-130,156,-222v67,-92,120,-168,158,-231v55,1,110,2,166,2v36,0,91,-1,166,-2r-223,295r-275,368v91,150,241,384,452,702v-78,-1,-135,-2,-170,-2v-57,0,-119,1,-185,2v-66,-129,-233,-383,-301,-507v-37,57,-93,135,-167,234v-74,99,-138,190,-193,273v-73,-1,-128,-2,-166,-2v-42,0,-100,1,-173,2","w":1312},"Y":{"d":"395,0v8,-74,17,-171,25,-290v8,-119,13,-214,14,-285r-448,-790v75,1,134,2,176,2v40,0,93,-1,160,-2v63,148,211,402,279,556r297,-480r44,-76v65,1,122,2,172,2v26,0,80,-1,161,-2r-546,811r-12,253v-4,75,-7,175,-9,301v-71,-1,-123,-2,-156,-2v-33,0,-86,1,-157,2","w":1201},"Z":{"d":"45,0v6,-91,9,-166,10,-226r47,-52r575,-689r155,-192r-330,-2v-125,0,-248,4,-367,11v4,-52,6,-108,6,-168v0,-11,0,-27,-1,-47r1070,0v-5,73,-9,147,-10,223r-107,121r-357,437r-313,374r515,-1v65,-1,135,-4,212,-9v-5,93,-9,167,-10,220r-1095,0","w":1268},"[":{"d":"209,-1365v85,1,159,2,224,2v65,0,140,-1,224,-2v-4,24,-7,118,-9,162v-35,-1,-69,-2,-103,-2v-35,0,-69,1,-103,2v-29,502,-51,1002,-64,1501v35,1,69,2,103,2v34,0,68,-1,102,-2v-4,37,-7,91,-8,161v-61,-1,-136,-2,-223,-2v-87,0,-162,1,-223,2r34,-578r29,-675","w":707},"\\":{"d":"1021,459v-48,-1,-81,-2,-99,-2v-22,0,-52,1,-89,2r-80,-193r-448,-1018r-273,-613v39,1,67,2,86,2v17,0,47,-1,88,-2r98,228r595,1332","w":865},"]":{"d":"461,459v-79,-1,-154,-2,-225,-2v-71,0,-145,1,-224,2v4,-24,9,-117,9,-162v32,1,66,2,103,2v35,0,69,-1,103,-2v30,-502,51,-1002,64,-1501v-35,-1,-69,-2,-102,-2v-35,0,-69,1,-103,2v4,-37,7,-90,9,-161v61,1,135,2,222,2v87,0,162,-1,223,-2r-34,578r-29,675","w":707},"^":{"d":"273,-731r-233,0r326,-641r291,0r327,641r-234,0r-239,-465","w":1024},"_":{"d":"0,125r1024,0r0,160r-1024,0r0,-160","w":1024},"`":{"d":"666,-1154v-39,-1,-73,-2,-103,-2v-39,0,-76,1,-109,2r-75,-109v-23,-34,-56,-79,-97,-134v64,1,114,2,151,2v46,0,95,-1,148,-2","w":1024},"a":{"d":"752,-728v39,-105,-66,-153,-173,-153v-121,0,-255,29,-402,87r30,-189v156,-36,275,-58,441,-58v212,0,399,49,398,268v0,38,-5,135,-16,291v-11,156,-17,316,-19,482v-51,-1,-97,-2,-140,-2v-41,0,-88,1,-143,2v9,-81,16,-174,21,-280r13,-249v-123,100,-377,69,-442,219v-56,129,84,199,230,171v23,-5,56,-12,96,-25v-14,38,-30,95,-49,170v-209,39,-444,20,-517,-124v-52,-104,-43,-234,20,-311v116,-143,374,-160,582,-234v31,-11,59,-37,70,-65","w":1161},"b":{"d":"716,24v-178,0,-273,-77,-340,-194r-4,170v-55,-1,-98,-2,-129,-2v-24,0,-71,1,-142,2v23,-222,63,-1115,62,-1365v59,1,111,2,154,2v43,0,90,-1,139,-2v-11,94,-20,213,-27,356v110,-21,164,-31,271,-32v328,-4,502,172,502,491v0,326,-155,574,-486,574xm918,-538v5,-217,-151,-339,-384,-296v-33,6,-75,15,-124,29r-11,278v-6,212,64,345,249,345v189,0,265,-167,270,-356","w":1274},"c":{"d":"356,-492v-7,239,165,346,404,298v43,-9,89,-20,137,-37r-36,222v-95,22,-189,33,-282,33v-331,2,-507,-182,-507,-507v0,-345,183,-566,545,-558v113,3,190,12,297,38r15,219v-99,-34,-186,-51,-260,-51v-205,3,-307,137,-313,343","w":1001},"d":{"d":"72,-443v0,-373,230,-602,620,-598v61,0,129,6,206,17v5,-87,7,-178,7,-273r0,-68v63,1,111,2,144,2v43,0,92,-1,146,-2v-15,169,-28,399,-41,691v-13,292,-20,517,-20,674v-55,-1,-98,-2,-129,-2v-33,0,-79,1,-138,2r9,-174v-85,116,-178,198,-366,198v-279,0,-438,-184,-438,-467xm349,-461v-9,197,158,336,344,259v118,-49,165,-167,181,-334v5,-52,9,-151,13,-298v-50,-13,-98,-20,-144,-20v-250,-4,-384,156,-394,393","w":1281},"e":{"d":"354,-514v-32,285,187,395,462,338v53,-11,118,-27,192,-51v-9,39,-21,110,-37,212v-125,26,-201,36,-331,39v-358,8,-568,-165,-568,-504v0,-342,196,-562,547,-562v325,0,520,192,468,527xm830,-630v15,-189,-118,-282,-292,-231v-103,30,-157,111,-176,230","w":1148},"f":{"d":"597,-1225v-123,0,-155,83,-146,214r255,0v-4,46,-8,111,-12,196r-240,0v-13,265,-22,537,-29,815v-61,-1,-109,-2,-145,-2v-37,0,-84,1,-143,2r12,-165r30,-650r-124,0v4,-33,10,-161,11,-196r136,0v-1,-177,2,-299,112,-359v120,-65,294,-50,447,-13v2,75,6,139,11,192v-64,-23,-122,-34,-175,-34","w":704},"g":{"d":"278,-901v213,-175,579,-157,913,-92r-23,317r-21,397v-13,248,25,534,-127,659v-182,150,-571,113,-835,49r-13,-217v201,60,331,101,509,58v180,-44,188,-205,192,-443v-79,117,-183,188,-368,188v-275,0,-433,-175,-433,-449v0,-203,86,-369,206,-467xm349,-456v-10,194,155,321,343,254v144,-52,192,-197,200,-396v3,-62,7,-134,10,-219v-58,-12,-112,-18,-161,-18v-251,-4,-382,148,-392,379","w":1291},"h":{"d":"919,-612v0,-146,-76,-211,-209,-211v-266,0,-296,200,-312,488v-3,57,-7,168,-11,335v-53,-1,-98,-2,-136,-2v-36,0,-86,1,-151,2r24,-325r24,-465r14,-575v59,1,107,2,146,2v51,0,99,-1,145,-2r-18,238v-4,59,-9,153,-16,283v79,-133,195,-199,399,-199v224,0,399,90,388,315r-29,571v-2,45,-3,98,-3,157v-54,-1,-102,-2,-143,-2v-45,0,-96,1,-153,2v15,-118,41,-489,41,-612","w":1317},"i":{"d":"154,-1191r4,-190v61,1,110,2,148,2v52,0,100,-1,145,-2v-6,58,-6,128,-9,190v-51,-1,-97,-2,-140,-2v-43,0,-92,1,-148,2xm442,-1017v-28,310,-38,692,-39,1017v-61,-1,-109,-2,-146,-2v-35,0,-87,1,-157,2v34,-330,41,-666,49,-1017v65,1,114,2,147,2v30,0,79,-1,146,-2","w":546},"j":{"d":"153,-1194v4,-69,7,-132,8,-187v43,1,92,2,145,2v48,0,96,-1,144,-2r-10,187v-50,-1,-98,-2,-143,-2v-47,0,-95,1,-144,2xm435,-1017r-20,446r-14,447v-12,276,6,314,-41,447v-70,197,-395,181,-633,131r-10,-129r-10,-86v135,51,311,56,366,-49v53,-102,39,-144,53,-358v7,-108,9,-234,13,-379v5,-189,8,-315,8,-379r0,-91v61,1,109,2,146,2v39,0,86,-1,142,-2","w":549},"k":{"d":"100,0r20,-260r23,-499r13,-606v70,1,120,2,149,2v35,0,80,-1,137,-2r-21,325r-24,518r-11,522v-59,-1,-106,-2,-140,-2v-39,0,-87,1,-146,2xm419,-569r203,-248r153,-200v69,1,120,2,152,2v44,0,100,-1,167,-2r-329,378r-59,72v49,77,184,266,405,567v-60,-1,-111,-2,-154,-2v-43,0,-96,1,-159,2r-94,-152v-24,-38,-47,-72,-68,-101r-170,-243v-5,-7,-20,-31,-47,-73","w":1124},"l":{"d":"101,0v10,-113,23,-316,37,-608v14,-292,23,-544,26,-757v69,1,119,2,148,2v39,0,87,-1,144,-2r-24,365r-35,814r-4,186v-55,-1,-101,-2,-139,-2v-13,0,-64,1,-153,2","w":543},"m":{"d":"787,-636v0,-114,-46,-186,-153,-186v-106,0,-170,81,-200,169v-32,97,-46,517,-46,653v-61,-1,-108,-2,-139,-2v-35,0,-84,1,-147,2v9,-113,20,-283,30,-508v10,-225,15,-395,15,-509v57,1,103,2,138,2v41,0,85,-1,132,-2r-8,161v68,-113,169,-185,342,-185v160,0,257,60,301,185v64,-113,169,-185,343,-185v185,0,339,83,329,271r-24,444v-7,140,-10,249,-11,326v-49,-1,-92,-2,-129,-2v-44,0,-96,1,-155,2r29,-499v3,-58,5,-107,5,-147v1,-117,-51,-175,-157,-175v-111,0,-171,74,-198,161v-51,163,-35,441,-45,660v-55,-1,-101,-2,-138,-2v-37,0,-86,1,-147,2v8,-74,33,-553,33,-636","w":1830},"n":{"d":"915,-590v0,-193,-167,-268,-328,-202v-75,30,-128,95,-152,178v-45,155,-42,367,-50,614v-51,-1,-98,-2,-139,-2v-42,0,-93,1,-153,2v15,-151,29,-321,39,-510v10,-189,16,-358,17,-507v61,1,110,2,147,2v43,0,89,-1,138,-2r-11,170v78,-124,196,-194,393,-194v226,0,395,93,384,324r-24,523v-3,61,-4,125,-5,194v-53,-1,-98,-2,-135,-2v-51,0,-102,1,-153,2v8,-79,32,-507,32,-590","w":1311},"o":{"d":"72,-489v0,-350,228,-552,575,-552v330,0,547,178,547,507v0,348,-215,558,-572,558v-334,0,-550,-184,-550,-513xm910,-534v1,-179,-86,-301,-263,-301v-197,0,-290,152,-291,352v-1,182,89,307,266,307v198,0,287,-157,288,-358","w":1265},"p":{"d":"742,24v-174,0,-275,-67,-360,-168r-17,603r-290,0v17,-186,32,-427,45,-723v13,-296,20,-536,20,-721v274,-48,492,-85,748,-24v263,63,373,394,282,698v-56,186,-189,335,-428,335xm923,-525v0,-193,-95,-314,-281,-316v-69,0,-145,13,-226,40v-13,95,-18,217,-20,310v-4,183,87,316,258,316v181,0,269,-164,269,-350","w":1273},"q":{"d":"272,-906v201,-162,577,-154,903,-95v-32,345,-53,831,-63,1460v-50,-1,-98,-2,-143,-2v-37,0,-86,1,-148,2r36,-625v-85,113,-177,190,-359,190v-274,0,-426,-192,-426,-469v0,-192,88,-371,200,-461xm349,-441v-7,194,166,328,341,239v108,-55,158,-157,170,-320v4,-56,10,-154,14,-294v-51,-13,-99,-19,-144,-19v-245,-1,-373,155,-381,394","w":1270},"r":{"d":"403,-876v71,-117,185,-189,366,-155v0,62,3,141,9,236v-216,-57,-354,53,-376,251v-15,138,-24,378,-16,544v-51,-1,-97,-2,-139,-2v-41,0,-91,1,-148,2r29,-475r10,-447v0,-10,-1,-42,-2,-95v62,1,108,2,137,2v34,0,79,-1,135,-2","w":795},"s":{"d":"780,-340v76,238,-143,369,-377,364v-109,-1,-226,-16,-330,-43r-22,-220v105,42,177,63,291,71v123,9,225,-86,146,-178v-107,-125,-288,-188,-350,-346v-10,-27,-15,-55,-15,-83v0,-187,166,-266,374,-266v87,0,188,10,302,31r13,209v-77,-31,-152,-47,-223,-47v-103,0,-206,27,-177,132v36,67,65,74,137,132v86,71,195,130,231,244","w":898},"t":{"d":"454,-343v0,123,56,176,174,156v18,-3,50,-10,96,-22v-8,37,-21,105,-38,204v-91,20,-135,27,-222,29v-195,5,-304,-79,-293,-280r31,-558r-144,0v3,-40,6,-104,9,-193r151,0v4,-39,8,-104,12,-197r118,-23v25,-5,72,-16,143,-33v-5,90,-7,174,-8,253r254,0v-5,90,-7,154,-7,193r-255,0v-14,271,-21,428,-21,471","w":761},"u":{"d":"392,-472v-21,175,57,270,210,270v249,0,278,-209,286,-486v3,-108,9,-218,11,-329v66,1,116,2,151,2v39,0,84,-1,133,-2v-8,95,-16,214,-25,357v-9,143,-15,261,-18,354v-3,93,-6,195,-8,306v-59,-1,-104,-2,-135,-2v-39,0,-84,1,-134,2r2,-166v-71,125,-188,190,-379,190v-150,0,-261,-45,-326,-131v-76,-100,-40,-312,-33,-468r15,-340v1,-27,1,-61,1,-102v63,1,113,2,149,2v38,0,84,-1,138,-2","w":1280},"v":{"d":"373,0v-44,-141,-162,-480,-355,-1017v59,1,109,2,152,2v45,0,92,-1,139,-2r234,763r297,-763v55,1,103,2,146,2v43,0,93,-1,148,-2r-163,353r-236,535r-53,129v-60,-1,-110,-2,-151,-2v-43,0,-95,1,-158,2","w":1104},"w":{"d":"366,0r-117,-355r-168,-488r-63,-174v51,1,98,2,141,2v41,0,83,-1,128,-2r231,749r265,-749v50,1,98,2,143,2v48,0,94,-1,137,-2r193,749r289,-749v51,1,94,2,131,2v30,0,75,-1,136,-2r-275,628r-165,389v-56,-1,-100,-2,-132,-2v-33,0,-84,1,-152,2r-183,-728r-263,728v-57,-1,-100,-2,-129,-2v-33,0,-82,1,-147,2","w":1781},"x":{"d":"-23,0r400,-541r-193,-304r-113,-172v73,1,132,2,176,2v58,0,110,-1,155,-2r176,333r220,-333v47,1,98,2,152,2v51,0,103,-1,157,-2r-156,205r-198,268r146,237r197,307v-57,-1,-110,-2,-159,-2v-59,0,-116,1,-171,2v-62,-132,-155,-281,-211,-390r-257,390v-56,-1,-107,-2,-152,-2v-51,0,-107,1,-169,2","w":1139},"y":{"d":"454,402v-99,88,-314,103,-479,58v-12,-100,-22,-172,-29,-216v106,53,240,71,314,-3v51,-51,97,-132,123,-217r-208,-609r-152,-432v70,1,120,2,151,2v35,0,82,-1,139,-2v14,55,27,103,39,144r158,532v8,32,17,74,28,127v20,-61,37,-110,52,-148r259,-655v60,1,106,2,137,2v29,0,77,-1,144,-2r-385,863r-167,381v-39,81,-69,126,-124,175","w":1104},"z":{"d":"48,0v3,-65,5,-139,6,-221v26,-26,43,-44,51,-54r489,-552r-286,3v-67,2,-132,5,-196,9v5,-64,7,-131,7,-202v116,1,225,2,326,2v183,0,339,-1,467,-2v-3,28,-6,106,-11,233r-499,555r-34,35v67,3,123,4,168,4v98,0,165,-1,202,-2v37,-1,83,-2,137,-5v-5,50,-10,116,-14,197v-117,-1,-250,-2,-398,-2v-158,0,-296,1,-415,2","w":988},"{":{"d":"261,-245v0,-97,-41,-148,-117,-165v4,-25,6,-53,7,-84v91,-31,129,-83,130,-207v1,-19,1,-89,5,-209v7,-198,-8,-236,54,-334v68,-108,201,-121,390,-121v-4,29,-10,126,-11,160v-147,7,-199,51,-202,207r-5,241v-4,116,-7,225,-72,275v-12,10,-30,20,-54,31v170,68,84,363,84,574v0,137,63,174,188,176v-4,34,-10,120,-11,160v-185,-4,-324,-16,-381,-137v-19,-41,-28,-88,-28,-143v0,-43,23,-382,23,-424","w":849},"|":{"d":"383,-1365r259,0r0,1706r-259,0r0,-1706","w":1024},"}":{"d":"535,-662v0,105,47,146,117,168v-4,24,-6,52,-7,83v-108,32,-131,106,-131,255v0,209,26,466,-118,554v-86,53,-176,61,-329,61v3,-23,7,-77,11,-161v106,-2,168,-29,190,-104v39,-133,-30,-533,89,-615v12,-9,29,-21,53,-32v-80,-32,-101,-98,-103,-207v-1,-66,19,-318,19,-378v0,-126,-66,-164,-185,-167r6,-160v241,-3,405,41,412,263v1,32,-24,408,-24,440","w":849},"~":{"d":"512,-582v-109,-20,-144,49,-192,131r-129,-104v62,-138,148,-294,357,-256v111,20,221,122,340,122v87,0,121,-63,161,-134r129,103v-60,144,-128,260,-317,260v-136,0,-225,-99,-349,-122","w":1365},"\u20ac":{"d":"160,-915v93,-298,367,-476,751,-476v93,0,205,13,336,39r13,236v-236,-75,-403,-85,-594,9v-86,42,-151,109,-197,192r725,0r-39,170r-743,0v-6,39,-6,80,-6,124r722,0r-38,170r-646,0v68,161,230,258,453,258v92,0,205,-20,340,-59r-37,240v-137,25,-255,37,-352,37v-362,1,-636,-180,-707,-476r-133,0r39,-170r72,0v0,-43,1,-83,6,-124r-117,0r39,-170r113,0","w":1296},"\u00a0":{"w":512}}});


/*!
 * The following copyright notice may not be removed under any circumstances.
 * 
 * Copyright:
 * Typeface: Copyright ©1995 International Typeface Corporation. Data: Copyright ©
 * 1995 Microsoft Corportation. All rights reserved.
 * 
 * Trademark:
 * ITC Eras is a registered trademark of International Typeface Corporation.
 */
Cufon.registerFont({"w":1170,"face":{"font-family":"Eras Medium ITC","font-weight":400,"font-stretch":"normal","units-per-em":"2048","panose-1":"2 11 6 2 3 5 4 2 8 4","ascent":"1638","descent":"-410","x-height":"22","bbox":"-334 -1541 2023 485.015","underline-thickness":"120","underline-position":"-94","unicode-range":"U+0020-U+20AC"},"glyphs":{" ":{"w":512},"!":{"d":"187,-298r28,-1067r188,0v-7,88,-13,181,-18,278r-41,789v-29,-1,-53,-2,-72,-2v-26,0,-54,1,-85,2xm154,0r10,-181v47,1,82,2,105,2v19,0,52,-1,100,-2v-2,26,-5,86,-10,181v-44,-1,-77,-2,-100,-2v-29,0,-64,1,-105,2","w":562},"\"":{"d":"142,-1026v2,-59,3,-111,3,-156r-1,-183r141,0v-13,113,-23,226,-30,339v-45,-3,-69,-2,-113,0xm370,-1026v2,-59,3,-111,3,-156r-1,-183r141,0v-13,103,-23,216,-30,339v-45,-3,-69,-2,-113,0","w":594},"#":{"d":"314,-487r-230,3v8,-30,16,-69,23,-117r228,3r32,-179r-230,3v6,-23,14,-62,23,-117r228,3r82,-477r131,0r-87,478r233,0r83,-478r131,0v-6,31,-35,190,-87,477r227,-3v-9,38,-16,77,-22,117r-226,-3r-32,179r228,-3v-9,33,-16,72,-23,117r-226,-3r-84,487v-29,-3,-103,-3,-131,0r89,-488r-233,0r-85,488v-30,-3,-102,-3,-131,0xm493,-778r-32,181r234,0r32,-181r-234,0"},"$":{"d":"668,-1226v-147,-4,-252,98,-214,248v11,45,52,97,84,126r268,248v89,82,171,201,121,360v-42,133,-136,201,-286,235v-1,39,-2,70,-2,95v0,21,1,51,2,91v-35,-1,-63,-2,-82,-2v-19,0,-47,1,-86,2v5,-59,7,-116,8,-173v-131,-12,-184,-27,-290,-69v-1,-67,-4,-122,-8,-166v111,56,182,86,313,92v165,7,293,-133,224,-291v-27,-62,-85,-99,-131,-143r-234,-215v-82,-77,-166,-228,-104,-376v50,-120,135,-177,294,-201v3,-43,2,-129,1,-176r167,0v-5,61,-8,120,-9,175v91,9,129,16,207,39v2,45,6,99,12,161v-88,-37,-154,-57,-255,-60"},"%":{"d":"61,-884v0,-253,77,-496,322,-496v213,0,284,177,284,397v0,247,-74,482,-319,482v-209,0,-287,-171,-287,-383xm468,-1252v-58,-49,-140,-39,-194,14v-90,89,-121,353,-75,514v20,71,70,129,151,129v64,0,112,-37,146,-110v62,-133,83,-454,-28,-547xm357,0r713,-1186r103,-179r121,0r-249,409r-468,786r-96,170v-42,-3,-79,-3,-124,0xm982,-369v0,-253,77,-495,323,-495v201,0,286,173,282,391v-5,250,-66,487,-319,487v-211,0,-286,-166,-286,-383xm1390,-735v-58,-50,-143,-40,-196,14v-89,91,-118,355,-73,515v20,70,70,127,150,127v64,0,113,-37,146,-111v62,-133,82,-450,-27,-545","w":1640},"&":{"d":"1032,-341v39,-76,49,-158,55,-265v33,1,59,2,78,2v19,0,45,-1,76,-2v-2,151,-41,280,-101,382r235,224v-47,-1,-83,-2,-107,-2v-30,0,-64,1,-102,2r-145,-136v-103,96,-235,158,-434,158v-268,0,-480,-121,-480,-375v0,-152,79,-238,173,-310v42,-31,99,-68,172,-109v-73,-111,-124,-171,-124,-305v0,-203,164,-310,381,-310v95,0,159,17,246,44v0,67,1,115,2,144v-69,-39,-118,-60,-206,-62v-167,-3,-295,119,-239,287v59,178,215,326,347,464v23,24,81,80,173,169xm283,-428v-97,314,375,412,593,244v16,-13,33,-31,54,-54v-161,-154,-264,-261,-402,-426v-115,72,-207,114,-245,236","w":1412},"'":{"d":"142,-1026v2,-59,3,-111,3,-156r-1,-183r141,0v-13,113,-23,226,-30,339v-45,-3,-69,-2,-113,0","w":367},"(":{"d":"463,-1222v-136,456,-188,1157,-53,1673v-45,-3,-98,-3,-142,0v-55,-226,-97,-464,-97,-741v0,-369,109,-827,192,-1075r140,0","w":656},")":{"d":"97,451v184,-499,221,-1228,98,-1816r140,0v56,272,89,481,92,769v4,374,-92,782,-189,1047v-29,-1,-53,-2,-72,-2v-20,0,-43,1,-69,2","w":649},"*":{"d":"247,-799r195,-219r-267,-79v17,-33,33,-71,49,-113r259,109r-1,-286v48,3,76,3,123,0r-31,286r270,-104v10,38,22,75,36,112r-278,77r174,217v-41,28,-75,53,-102,76r-154,-241r-182,241v-29,-26,-59,-51,-91,-76","w":1034},"+":{"d":"112,-643v5,-38,7,-78,8,-120v179,3,316,4,413,4r12,-422v20,3,110,3,128,0r-21,422r421,-4v-4,34,-7,74,-8,120v-173,-3,-313,-5,-418,-5r-12,423v-24,-3,-105,-3,-129,0r21,-423"},",":{"d":"13,219v51,-139,93,-262,126,-369r215,0r-220,369r-121,0","w":461},"-":{"d":"-3,-461v5,-49,8,-94,8,-133v93,3,176,5,249,5v71,0,154,-2,249,-5v-5,47,-7,91,-8,133v-83,-3,-167,-5,-251,-5v-80,0,-162,2,-247,5","w":510},".":{"d":"113,0r8,-185r102,2v15,0,46,-1,92,-2r-10,185v-43,-1,-74,-2,-92,-2v-17,0,-50,1,-100,2","w":461},"\/":{"d":"-186,451r222,-446r574,-1181r88,-189r129,0r-782,1611r-95,205v-28,-1,-50,-2,-65,-2v-15,0,-38,1,-71,2","w":850},"0":{"d":"101,-585v0,-414,114,-802,523,-802v344,0,456,280,456,628v0,406,-115,781,-520,781v-331,0,-459,-264,-459,-607xm890,-940v-29,-197,-143,-382,-360,-302v-211,78,-247,366,-252,663v-3,221,48,389,199,456v56,25,129,25,185,-1v187,-86,236,-366,240,-644v0,-65,-4,-123,-12,-172"},"1":{"d":"514,0v9,-104,16,-222,21,-354r32,-842r-149,97v5,-63,8,-117,8,-164v85,-49,139,-83,164,-102r175,0r-25,427r-26,592r-4,346v-33,-1,-64,-2,-93,-2v-33,0,-67,1,-103,2"},"2":{"d":"115,0v2,-23,4,-69,5,-138v204,-198,388,-388,556,-598v88,-110,139,-154,168,-260v50,-181,-103,-265,-290,-264v-95,0,-217,19,-366,57v9,-47,17,-96,24,-145v295,-57,695,-83,812,135v76,141,-3,300,-70,393v-166,235,-395,481,-615,695v47,1,126,2,238,2v63,0,134,-1,213,-2v79,-1,150,-5,213,-11v-5,58,-9,103,-10,136r-878,0"},"3":{"d":"1034,-389v-4,421,-531,471,-919,359v-3,-57,-8,-109,-14,-154v125,48,226,75,369,75v205,0,375,-96,375,-293v0,-235,-253,-266,-508,-240v5,-57,7,-103,8,-138v236,36,478,-33,478,-258v0,-278,-385,-244,-618,-181v8,-31,16,-77,25,-139v77,-11,139,-20,185,-24v306,-27,607,23,607,321v0,212,-120,308,-306,354v173,14,259,79,304,215v11,32,14,68,14,103"},"4":{"d":"885,-599v134,-2,140,4,196,-5r-3,137v-53,-3,-130,-4,-230,-4r-10,392v0,17,1,44,2,79v-37,-1,-68,-2,-93,-2v-23,0,-56,1,-98,2v11,-123,19,-280,26,-471r-574,5v4,-35,7,-118,7,-158r188,-250r195,-266v55,-74,107,-149,157,-225r242,0v-16,251,-28,506,-36,765xm694,-595r23,-644r-468,644r445,0"},"5":{"d":"1055,-448v0,419,-480,539,-894,431v-3,-55,-8,-104,-14,-146v113,31,179,50,296,50v232,0,408,-109,408,-331v0,-294,-371,-271,-658,-220r63,-701r779,0v-4,40,-6,86,-7,138r-123,-7r-477,-4r-42,452v336,-52,669,12,669,338"},"6":{"d":"877,-422v0,-169,-99,-261,-272,-260v-47,0,-101,8,-163,23v39,-67,64,-111,73,-131v65,-12,93,-17,154,-18v243,-4,393,135,393,371v0,289,-191,459,-493,459v-275,0,-464,-143,-464,-414v0,-267,117,-450,233,-644v58,-97,137,-206,230,-329r228,0v-197,234,-317,390,-438,659v-51,114,-75,177,-75,306v0,184,106,294,285,294v191,0,308,-126,309,-316"},"7":{"d":"226,0r324,-658r278,-578v-75,-1,-155,-1,-241,-1v-143,0,-285,4,-426,11v4,-48,7,-94,8,-139r858,0r-8,151r-138,284r-313,660r-118,270r-224,0"},"8":{"d":"90,-344v0,-209,116,-303,295,-352v-136,-49,-222,-131,-222,-303v0,-263,201,-388,470,-388v236,0,416,112,416,346v0,194,-100,280,-247,341v167,37,266,120,266,309v0,283,-216,413,-507,413v-265,0,-471,-111,-471,-366xm882,-1028v0,-155,-109,-235,-264,-237v-167,-2,-288,115,-287,277v1,155,107,236,260,236v171,0,291,-104,291,-276xm892,-393v0,-165,-117,-241,-301,-241v-195,0,-323,89,-323,269v0,171,135,264,307,264v182,0,317,-110,317,-292"},"9":{"d":"615,-1388v321,-4,512,215,444,548v-68,334,-273,583,-435,840r-233,0v156,-203,279,-384,367,-544v88,-160,132,-298,132,-416v0,-180,-102,-300,-283,-300v-181,0,-304,115,-312,295v-11,248,244,308,467,233v-23,39,-49,85,-76,136v-300,67,-581,-47,-574,-346v7,-285,212,-442,503,-446"},":":{"d":"356,-1013r-10,184r-191,0r8,-184r193,0xm113,0r8,-185r102,2v15,0,46,-1,92,-2r-10,185v-43,-1,-74,-2,-92,-2v-17,0,-50,1,-100,2","w":461},";":{"d":"356,-1013r-10,184r-192,0r9,-184r193,0xm13,219v51,-139,93,-262,126,-369r215,0r-220,369r-121,0","w":461},"<":{"d":"957,-1173r0,157r-717,329r717,330r0,156r-887,-418r0,-136","w":1028},"=":{"d":"136,-898v140,3,299,5,476,5v175,0,334,-2,477,-5v-4,33,-7,73,-8,121v-181,-3,-340,-5,-476,-5v-137,0,-296,2,-477,5v4,-37,7,-77,8,-121xm117,-629v181,3,340,4,476,4v136,0,295,-1,477,-4v-4,34,-7,74,-8,120v-181,-3,-339,-5,-476,-5v-136,0,-295,2,-477,5v5,-38,7,-78,8,-120"},">":{"d":"71,-200r0,-158r717,-329r-716,-330r-1,-156r887,418r0,137","w":1028},"?":{"d":"89,-1357v339,-55,793,-72,793,261v0,188,-128,285,-228,394v-93,103,-152,146,-160,320r-9,107v-52,-3,-110,-3,-161,0r7,-139v8,-219,67,-229,183,-368v88,-106,109,-114,157,-204v13,-26,19,-53,19,-82v-5,-191,-241,-211,-436,-182v-48,7,-112,21,-192,42v13,-61,22,-111,27,-149xm505,-177r-10,177v-40,-1,-73,-2,-100,-2v-27,0,-62,1,-105,2r12,-177r203,0","w":959},"@":{"d":"493,-586v10,-290,219,-476,558,-434v29,3,78,11,147,24r-76,498v-1,44,25,70,65,70v175,0,283,-227,283,-432v0,-305,-227,-434,-535,-434v-345,0,-562,168,-664,422v-38,94,-57,193,-57,296v2,338,214,506,556,505v172,-2,289,-32,399,-109v9,27,19,54,30,81v-116,79,-253,121,-440,121v-396,0,-665,-190,-654,-590v14,-501,318,-819,839,-819v369,0,635,169,635,528v0,201,-99,365,-226,455v-71,50,-142,76,-213,76v-83,0,-152,-43,-152,-121v-58,71,-130,121,-251,121v-151,0,-249,-101,-244,-258xm625,-598v-3,127,106,206,226,156v112,-47,153,-140,173,-290v7,-53,17,-112,25,-175v-241,-63,-418,88,-424,309","w":1669},"A":{"d":"1177,0v-35,-128,-148,-450,-195,-573r-547,0r-145,299r-128,274r-102,-2v-17,0,-52,1,-107,2r182,-344r464,-907r54,-114r233,0r173,490r320,875r-95,-2v-18,0,-54,1,-107,2xm494,-705r450,0r-186,-529","w":1425},"B":{"d":"863,-710v169,38,277,133,277,333v0,190,-111,304,-256,347v-190,57,-500,21,-749,30v35,-376,50,-978,52,-1365v90,1,159,2,208,2v243,5,542,-45,657,103v38,49,71,122,69,209v-5,192,-108,290,-258,341xm942,-1038v0,-157,-101,-204,-279,-204r-295,0r-18,475r181,0v146,-2,170,4,261,-31v91,-35,150,-122,150,-240xm326,-126v189,-7,409,21,527,-54v83,-53,145,-206,89,-321v-50,-104,-139,-141,-308,-141r-290,0","w":1233},"C":{"d":"875,-1252v-369,0,-594,228,-594,592v0,346,198,549,546,549v106,0,228,-21,366,-63v-9,48,-18,100,-25,156v-344,80,-693,37,-880,-142v-119,-114,-192,-274,-192,-489v0,-468,292,-738,762,-738v115,0,229,12,343,36v1,34,4,86,11,156v-123,-37,-206,-57,-337,-57","w":1288},"D":{"d":"408,-1363v283,2,603,-32,776,89v146,102,244,286,243,530v-4,367,-193,644,-495,712v-251,57,-481,22,-798,32r28,-412r30,-809v1,-33,1,-81,1,-144v84,1,156,2,215,2xm326,-134v81,2,157,3,227,3v203,0,373,-22,486,-123v124,-110,201,-270,203,-493v2,-236,-101,-412,-284,-465v-139,-40,-417,-21,-586,-21","w":1510},"E":{"d":"134,0r25,-376r28,-703r4,-286r884,0v-5,46,-8,92,-9,139r-202,-8r-489,2r-18,469v103,2,195,3,276,3v89,0,205,-1,349,-4v-5,47,-8,93,-9,138r-344,-3v-67,0,-161,1,-281,4r-18,494r480,-1v62,-1,133,-4,216,-9v-5,49,-8,96,-9,141v-161,-1,-296,-2,-407,-2","w":1158},"F":{"d":"135,0r20,-318r22,-595r8,-452r843,0v-5,61,-8,108,-8,139v-152,-11,-457,-8,-652,-6r-15,472r192,4v181,0,313,-1,395,-4v-4,49,-6,95,-6,137v-123,-3,-227,-4,-312,-4v-83,0,-176,1,-277,4v-7,245,-11,453,-11,623r-97,-2v-4,0,-38,1,-102,2","w":1091},"G":{"d":"282,-630v-7,402,305,569,721,508v63,-8,126,-22,190,-42r20,-473r-94,0v-63,0,-135,2,-216,5v4,-48,6,-92,6,-133r489,0v-15,199,-25,440,-32,722v-326,65,-539,97,-822,24v-277,-72,-447,-283,-447,-620v0,-368,211,-619,501,-705v237,-70,479,-49,747,8v1,50,5,104,10,162v-153,-50,-266,-81,-430,-81v-400,0,-636,231,-643,625","w":1527},"H":{"d":"135,0r33,-603r19,-618v1,-23,1,-71,1,-144r197,0r-29,599r812,0r18,-475v1,-17,1,-58,1,-124r197,0v-17,264,-30,501,-38,711v-8,210,-12,429,-15,654r-98,-2v-10,0,-44,1,-103,2v17,-208,28,-419,32,-632r-812,0r-14,410r-4,222r-101,-2v-9,0,-41,1,-96,2","w":1509},"I":{"d":"135,0r15,-230r21,-479r15,-554r-1,-102r200,0v-12,167,-21,341,-27,522v-11,291,-18,572,-23,843r-94,-2v-12,0,-47,1,-106,2","w":510},"J":{"d":"-44,-168v192,74,463,84,526,-93v40,-112,36,-168,42,-377r11,-355r7,-372r196,0v-14,208,-24,391,-31,549r-15,379v9,323,-127,458,-424,458v-87,0,-187,-11,-299,-34v-3,-54,-7,-106,-13,-155","w":858},"K":{"d":"371,-724r252,-284r213,-249r86,-108r223,0r-487,539r-84,97r55,71r551,658v-58,-1,-96,-2,-115,-2v-30,0,-71,1,-123,2r-99,-134xm136,0r25,-393r27,-773r1,-199r198,0r-20,365r-30,815r-3,185r-97,-2v-9,0,-43,1,-101,2","w":1195},"L":{"d":"130,0v15,-172,29,-382,40,-630v11,-248,17,-494,20,-735r198,0r-32,634r-24,598r488,-1v58,-1,114,-3,168,-6v-4,42,-7,89,-10,140v-151,-1,-285,-2,-401,-2","w":1008},"M":{"d":"108,0r21,-185r62,-745r30,-435r258,0r48,169r175,512r153,476r199,-476r227,-520r60,-161r263,0r-13,477r-6,401r3,487v-44,-1,-73,-2,-88,-2v-21,0,-51,1,-91,2r6,-127r15,-720r2,-351r-439,1053r-58,145v-43,-1,-74,-2,-91,-2v-21,0,-53,1,-96,2r-119,-377r-272,-815r-12,117r-60,860r-7,215r-84,-2v-13,0,-42,1,-86,2","w":1748},"N":{"d":"134,0r20,-278r34,-812r5,-275r240,0r109,176r661,997r42,-1173r177,0r-22,350r-27,617r-12,398v-39,-1,-78,-2,-116,-2v-35,0,-75,1,-121,2r-92,-147r-677,-1015r-36,883r-6,279v-43,-1,-72,-2,-87,-2v-11,0,-41,1,-92,2","w":1546},"O":{"d":"97,-650v0,-468,293,-732,766,-737v334,-3,571,162,660,407v30,82,43,171,43,267v-4,467,-281,735,-749,735v-437,0,-720,-232,-720,-672xm1381,-700v0,-343,-186,-554,-529,-554v-366,0,-570,238,-570,602v0,340,204,540,545,540v359,0,554,-229,554,-588","w":1649},"P":{"d":"900,-1029v-4,-154,-94,-208,-271,-207r-267,1v-8,146,-13,279,-17,398r-14,411v-5,156,-7,260,-7,313r0,113r-93,-2v-11,0,-43,1,-96,2r17,-227r32,-782r5,-356v83,1,151,2,203,2v212,0,476,-37,585,77v55,58,101,140,101,248v0,326,-299,479,-645,410v-10,-46,-21,-88,-34,-125v255,52,507,-25,501,-276","w":1113},"Q":{"d":"1565,-715v0,301,-128,477,-316,593v137,-11,198,-30,316,-65v-7,29,-17,81,-28,154v-210,31,-467,53,-674,55v-357,4,-619,-143,-718,-399v-68,-175,-61,-394,5,-571v103,-274,345,-439,711,-439v432,0,704,246,704,672xm1382,-703v2,-344,-193,-551,-528,-551v-362,0,-576,235,-576,593v0,345,200,548,538,548v361,0,564,-225,566,-590","w":1658},"R":{"d":"918,-1022v0,-166,-121,-216,-293,-215r-259,1v-21,448,-33,860,-38,1236r-98,-2v-15,0,-47,1,-97,2r20,-269r23,-497r12,-599v80,1,146,2,199,2r286,-4v250,-7,424,85,424,320v0,168,-80,278,-192,340v-65,36,-136,49,-241,60r176,281r237,366v-52,-1,-87,-2,-104,-2v-19,0,-54,1,-107,2r-116,-216r-48,-84r-272,-446v252,52,488,-37,488,-276","w":1159},"S":{"d":"873,-315v0,286,-286,369,-585,327v-49,-7,-118,-23,-209,-48v-3,-63,-7,-118,-13,-165v118,55,211,88,353,91v166,3,314,-99,258,-270v-22,-67,-56,-91,-121,-146r-245,-211v-91,-87,-195,-157,-195,-324v0,-225,182,-328,438,-326v74,0,165,10,273,30v1,43,6,95,14,157v-102,-36,-195,-54,-278,-54v-146,0,-262,65,-262,193v0,85,44,127,89,175v121,128,329,256,426,392v33,48,57,103,57,179","w":974},"T":{"d":"413,0r20,-306r27,-634r9,-293v-163,1,-306,4,-429,9v4,-53,6,-100,7,-141r1038,0v-5,59,-7,105,-7,140v-103,-6,-218,-9,-343,-9r-82,0r-21,443r-21,624r0,167r-96,-2v-9,0,-43,1,-102,2","w":1068},"U":{"d":"332,-509v-11,285,129,395,398,395v218,0,368,-90,396,-277v40,-264,48,-656,54,-974r196,0r-29,471v-25,287,13,629,-155,776v-175,154,-624,185,-850,56v-123,-70,-194,-174,-196,-358v0,-62,3,-133,8,-213v5,-80,10,-201,18,-362v8,-161,12,-285,12,-370r196,0r-45,763","w":1487},"V":{"d":"522,0r-54,-174r-426,-1191r199,0r54,178r355,1040r544,-1107r48,-111r203,0v-63,113,-143,266,-240,458r-259,508v-75,147,-140,280,-195,399v-47,-1,-85,-2,-112,-2v-27,0,-66,1,-117,2","w":1375},"W":{"d":"507,0r-157,-503r-285,-862r194,0r177,596r189,601v102,-211,199,-425,291,-644v-59,-189,-120,-374,-184,-553r195,0r45,167v0,0,30,98,53,166v39,-83,84,-194,137,-333r198,0v-89,181,-176,366,-259,555v61,213,129,427,203,642r266,-594r193,-446r65,-157r195,0r-319,681r-228,500r-81,184v-37,-1,-71,-2,-104,-2v-35,0,-70,1,-104,2v-59,-201,-123,-398,-192,-591v-98,196,-190,393,-277,591v-36,-1,-71,-2,-106,-2v-36,0,-71,1,-105,2","w":1983},"X":{"d":"-45,0r228,-286r325,-424r-268,-405r-170,-250r223,0v83,152,259,399,338,533r319,-423r74,-110r211,0r-511,662r184,284r280,419v-51,-1,-87,-2,-108,-2v-31,0,-69,1,-114,2r-103,-170r-264,-408r-239,317v-76,100,-139,187,-190,261v-48,-1,-83,-2,-106,-2v-24,0,-60,1,-109,2","w":1228},"Y":{"d":"402,0v17,-197,31,-397,40,-598r-439,-767r208,0v31,67,80,158,146,275r187,345r349,-544r45,-76r206,0r-399,590r-125,189r-20,456r-2,130v-47,-1,-80,-2,-98,-2v-18,0,-51,1,-98,2","w":1089},"Z":{"d":"50,0v5,-65,7,-116,7,-155r684,-875r156,-205r-377,-2v-51,0,-107,1,-169,3v-62,2,-133,4,-214,9v4,-45,6,-91,4,-140r975,0v-3,41,-6,93,-7,154r-64,77r-496,646r-279,356v23,1,163,1,421,1v146,0,268,-3,366,-10v-4,53,-6,100,-7,141r-1000,0","w":1178},"[":{"d":"534,346v-2,15,-6,88,-6,105v-53,-1,-113,-2,-180,-2v-68,0,-128,1,-181,2v31,-548,54,-1153,71,-1816r364,0v-4,28,-6,63,-7,105v-33,-1,-67,-2,-102,-2v-34,0,-69,1,-104,2r-41,961r-20,645r206,0","w":655},"\\":{"d":"978,451v-32,-1,-55,-2,-70,-2v-17,0,-38,1,-65,2r-200,-465r-599,-1351r128,0r173,398r454,1024","w":844},"]":{"d":"90,-1260v2,-18,6,-85,6,-105v49,1,109,2,180,2v72,0,132,-1,181,-2v-31,547,-54,1152,-71,1816v-41,-1,-102,-2,-182,-2v-81,0,-141,1,-182,2v3,-26,6,-61,7,-105r206,0r41,-961r20,-645v-35,-1,-69,-2,-103,-2v-34,0,-68,1,-103,2","w":656},"^":{"d":"218,-763r-154,0r357,-606r187,0r357,606r-155,0r-297,-495","w":1028},"_":{"d":"2,144r1024,0r0,111r-1024,0r0,-111","w":1028},"`":{"d":"621,-1145v-38,-3,-88,-3,-122,0v-67,-109,-123,-196,-168,-262v38,1,72,2,102,2v35,0,69,-1,101,-2","w":1024},"a":{"d":"782,-744v56,-228,-301,-205,-482,-152v-33,10,-74,25,-123,44v6,-29,12,-73,19,-130v137,-35,234,-54,381,-54v207,0,388,50,385,258v0,46,-3,124,-10,232v-7,108,-12,208,-16,300v-4,92,-6,174,-6,246v-36,-1,-65,-2,-88,-2v-21,0,-52,1,-91,2r21,-273r15,-323v-81,65,-121,72,-243,106v-128,36,-210,56,-285,124v-34,30,-51,65,-51,119v0,195,273,190,440,128v-9,26,-20,66,-32,120v-81,16,-127,20,-206,21v-228,5,-367,-73,-367,-272v0,-195,159,-247,313,-304v111,-41,392,-53,426,-190","w":1088},"b":{"d":"651,22v-194,0,-299,-89,-359,-230r-3,208v-39,-1,-66,-2,-82,-2v-11,0,-41,1,-89,2r15,-225r28,-678r12,-462r184,0v-9,85,-18,208,-25,368v119,-25,184,-37,304,-39v328,-6,495,176,495,490v0,324,-150,568,-480,568xm957,-545v0,-222,-121,-371,-351,-367v-111,2,-182,18,-284,50v-5,111,-8,184,-10,219v-7,118,0,296,33,368v46,100,138,169,271,170v239,2,341,-206,341,-440","w":1214},"c":{"d":"626,-909v-250,0,-368,177,-368,428v0,160,46,272,158,329v138,69,277,55,442,0r-25,145v-80,20,-172,28,-259,29v-319,2,-491,-182,-491,-497v0,-335,159,-561,521,-561v95,0,187,13,277,38v4,57,8,103,11,140v-102,-32,-162,-51,-266,-51","w":967},"d":{"d":"83,-445v0,-371,238,-597,630,-591v59,0,128,7,209,20v3,-73,5,-133,5,-181v0,-69,0,-125,-1,-168r182,0r-29,564r-20,646r0,155v-39,-1,-67,-2,-82,-2v-17,0,-46,1,-87,2r12,-216v-75,142,-177,238,-383,238v-279,0,-436,-183,-436,-467xm254,-450v-8,235,173,409,410,330v212,-71,244,-284,246,-593r5,-177v-67,-20,-112,-27,-185,-28v-298,-2,-466,183,-476,468","w":1215},"e":{"d":"260,-552v-31,278,107,455,368,457v86,0,191,-21,314,-64v-8,37,-16,83,-24,140v-111,28,-188,40,-307,41v-341,6,-528,-180,-528,-508v0,-328,176,-550,519,-550v290,0,455,182,421,484r-763,0xm864,-635v2,-190,-83,-292,-262,-292v-199,0,-301,116,-334,292r596,0","w":1087},"f":{"d":"140,0r11,-184r27,-704r-125,0v3,-33,6,-74,8,-123r129,0v3,-170,0,-286,106,-349v101,-59,247,-52,389,-19v1,40,5,82,10,127v-147,-57,-333,-49,-343,111v-2,35,-5,87,-6,130r278,0v-3,29,-6,70,-9,123r-268,0r-18,511r-9,377v-41,-1,-72,-2,-91,-2v-19,0,-48,1,-89,2","w":604},"g":{"d":"83,-425v0,-393,250,-614,659,-611v103,0,230,14,383,41r-11,123r-30,561v-17,240,25,528,-106,667v-155,165,-534,145,-792,81r-10,-144v208,67,478,117,638,-9v57,-45,77,-118,90,-215v6,-47,11,-142,14,-283v-68,143,-190,231,-395,233v-281,3,-440,-168,-440,-444xm254,-443v-5,203,110,338,313,338v187,0,290,-113,333,-256v47,-155,34,-249,45,-526v-75,-15,-144,-22,-209,-22v-306,0,-475,175,-482,466","w":1235},"h":{"d":"949,-662v0,-272,-367,-301,-515,-159v-113,108,-117,249,-128,476v-3,67,-6,182,-11,345v-37,-1,-65,-2,-84,-2v-17,0,-48,1,-93,2r25,-435r23,-593r6,-337r180,0r-22,347r-8,207v71,-146,196,-225,409,-226v225,-1,402,87,392,311r-26,579v-2,40,-3,89,-4,147v-39,-1,-68,-2,-89,-2v-23,0,-54,1,-95,2v12,-106,40,-549,40,-662","w":1245},"i":{"d":"163,-1231v2,-63,3,-110,3,-142v37,1,69,2,97,2v35,0,67,-1,96,-2v-1,21,-3,68,-6,142r-190,0xm118,0r17,-252r19,-430r8,-331r182,0v-7,104,-14,213,-20,327v-6,114,-10,237,-14,372v-4,135,-6,239,-6,314v-42,-1,-72,-2,-90,-2v-17,0,-49,1,-96,2","w":461},"j":{"d":"159,-1232v2,-38,4,-85,5,-141v29,1,61,2,97,2v33,0,64,-1,95,-2v-2,33,-4,80,-6,141v-36,-1,-68,-2,-96,-2v-27,0,-59,1,-95,2xm337,-1013r-20,441r-16,447v-13,266,5,316,-45,450v-42,111,-155,161,-314,160v-81,0,-169,-10,-263,-31v-1,-37,-6,-84,-13,-141v165,67,378,65,426,-86v42,-131,40,-243,46,-451r21,-698r-1,-91r179,0","w":462},"k":{"d":"115,0r17,-271r21,-519r12,-575r180,0v-9,107,-19,315,-31,625v-12,310,-20,557,-22,740v-41,-1,-70,-2,-87,-2v-19,0,-49,1,-90,2xm321,-565r204,-218v71,-76,139,-153,202,-230r207,0r-432,449v81,105,237,293,468,564v-41,-1,-75,-2,-100,-2v-25,0,-60,1,-103,2r-147,-195r-248,-303","w":982},"l":{"d":"114,0v13,-205,26,-449,39,-730v9,-205,15,-416,19,-635r182,0r-31,587r-22,594r-4,184v-39,-1,-69,-2,-88,-2v-8,0,-40,1,-95,2","w":459},"m":{"d":"804,-688v0,-173,-142,-251,-295,-194v-108,40,-163,128,-187,264v-20,113,-32,475,-32,618v-43,-1,-72,-2,-88,-2v-17,0,-48,1,-91,2r19,-290r24,-609v1,-50,1,-88,1,-114r169,0r-9,186v69,-128,170,-209,356,-209v161,0,260,70,296,207v69,-136,178,-207,357,-207v181,0,324,90,314,272r-23,436v-6,131,-9,241,-10,328v-35,-1,-63,-2,-83,-2v-21,0,-53,1,-95,2v7,-90,14,-188,19,-294r13,-248v3,-60,5,-112,5,-155v0,-168,-125,-233,-279,-193v-224,58,-222,314,-228,610r-8,280v-39,-1,-68,-2,-87,-2v-18,0,-48,1,-91,2v7,-83,12,-168,16,-255r12,-242v3,-75,5,-138,5,-191","w":1757},"n":{"d":"941,-647v0,-178,-107,-250,-274,-250v-239,0,-340,149,-358,398v-8,105,-17,271,-21,499v-37,-1,-66,-2,-87,-2v-21,0,-52,1,-94,2v32,-418,49,-756,50,-1013r177,0r-13,200v71,-144,196,-221,407,-223v244,-2,395,107,383,373r-24,516v-1,40,-2,89,-3,147v-30,-1,-58,-2,-85,-2v-33,0,-63,1,-92,2r28,-466v4,-80,6,-140,6,-181","w":1235},"o":{"d":"83,-483v-4,-336,205,-553,534,-553v319,0,506,182,506,498v0,338,-185,560,-532,560v-319,0,-504,-190,-508,-505xm949,-536v2,-229,-111,-374,-336,-373v-237,1,-355,184,-355,428v0,226,112,379,334,379v248,0,355,-184,357,-434","w":1206},"p":{"d":"659,22v-191,0,-292,-77,-370,-205r-16,536r0,99v-34,-1,-64,-2,-89,-2v-23,0,-54,1,-92,2v13,-172,26,-406,38,-702v12,-296,18,-538,19,-726v251,-55,506,-97,731,-10v204,78,296,399,213,666v-59,191,-190,342,-434,342xm951,-532v0,-229,-114,-379,-338,-380v-91,0,-189,18,-292,55r-20,386v-4,222,111,371,317,371v225,0,333,-200,333,-432","w":1206},"q":{"d":"744,-1036v133,3,187,10,348,36r-16,216r-17,389r-22,846r-181,0r21,-387r11,-273v-80,138,-181,231,-382,231v-269,0,-423,-185,-423,-461v0,-388,250,-605,661,-597xm254,-434v-1,192,105,332,290,332v182,0,287,-122,326,-269v40,-151,26,-250,34,-513v-74,-18,-111,-24,-182,-25v-295,-1,-466,185,-468,475","w":1200},"r":{"d":"306,-847v67,-136,193,-214,389,-179v1,44,3,93,7,148v-228,-61,-367,64,-394,270v-17,130,-21,426,-20,608v-36,-1,-65,-2,-87,-2v-20,0,-50,1,-91,2v24,-385,36,-692,36,-921r-1,-92r169,0","w":716},"s":{"d":"704,-304v69,245,-177,353,-439,320v-85,-11,-120,-16,-199,-35r-14,-149v103,45,197,67,284,67v130,0,230,-59,202,-187v-39,-89,-74,-94,-164,-172v-107,-92,-183,-132,-236,-254v-11,-25,-14,-52,-14,-79v0,-166,151,-243,337,-243v77,0,161,9,253,27v3,52,6,100,10,143v-75,-31,-148,-46,-221,-46v-121,0,-248,56,-199,176v40,99,93,108,194,192v109,91,171,117,206,240","w":813},"t":{"d":"334,-326v-16,152,39,244,188,217v19,-3,53,-10,102,-23v-7,33,-15,76,-24,130v-74,17,-112,23,-184,24v-184,4,-265,-79,-255,-268r34,-643r-133,0v3,-28,5,-68,7,-120r136,0v3,-37,7,-101,10,-191v63,-12,116,-23,159,-34v-5,99,-7,174,-8,225r278,0v-3,42,-5,82,-6,120r-277,0","w":658},"u":{"d":"291,-364v0,285,368,311,514,162v101,-103,110,-221,118,-445v4,-120,9,-242,11,-366r177,0v-9,120,-20,302,-33,547v-7,135,-12,290,-14,466v-33,-1,-61,-2,-84,-2v-27,0,-54,1,-83,2r5,-193v-67,144,-189,215,-395,215v-255,0,-396,-112,-382,-389r23,-445r4,-201r178,0v-9,117,-18,244,-26,383v-8,139,-13,227,-13,266","w":1220},"v":{"d":"383,0r-114,-324r-251,-689r186,0r52,166r235,697r318,-764r38,-99r188,0r-130,279r-261,582r-64,152v-41,-1,-74,-2,-97,-2v-24,0,-57,1,-100,2","w":1008},"w":{"d":"375,0r-47,-145r-310,-868r171,0r88,269r203,589r316,-858r182,0r231,858r280,-664r78,-194r169,0r-337,754r-110,259v-33,-1,-64,-2,-92,-2v-29,0,-62,1,-101,2r-222,-839r-307,839v-34,-1,-65,-2,-92,-2v-29,0,-63,1,-100,2","w":1710},"x":{"d":"-27,0r403,-545r-299,-468r204,0v37,71,108,193,215,367v130,-183,215,-306,254,-367r194,0r-170,225r-177,240r192,303r159,245v-41,-1,-74,-2,-101,-2v-31,0,-67,1,-106,2v-69,-136,-178,-306,-261,-444r-123,175v-70,99,-131,188,-183,269v-39,-1,-71,-2,-96,-2v-27,0,-62,1,-105,2","w":989},"y":{"d":"-70,319v88,49,237,61,302,-10v66,-71,115,-177,157,-282r-213,-607r-156,-434v49,1,81,2,97,2v19,0,49,-1,91,-2v72,294,195,585,276,885r113,-276r227,-535r26,-74v43,1,72,2,89,2v14,0,45,-1,93,-2r-560,1240v-72,157,-147,259,-357,259v-51,0,-107,-7,-168,-22v-5,-57,-10,-105,-17,-144","w":1004},"z":{"d":"43,0v3,-42,4,-92,5,-150r82,-97r520,-645v-61,-1,-126,-1,-194,-1v-107,0,-222,4,-344,11v3,-45,5,-88,5,-131r722,0r-7,156r-598,733v176,8,439,4,566,-6v-5,36,-8,79,-9,130v-109,-1,-229,-2,-359,-2v-161,0,-290,1,-389,2","w":909},"{":{"d":"315,-135v10,-161,7,-257,-111,-288v3,-20,5,-42,6,-66v89,-30,128,-82,128,-204v0,-111,-4,-430,32,-515v51,-121,157,-160,330,-157v-3,24,-6,59,-8,105v-149,5,-197,64,-200,220r-5,264v-3,157,-10,280,-125,321v152,54,95,309,89,495v-1,38,-4,73,-4,105v0,148,51,200,187,201v-4,25,-7,60,-8,105v-155,-1,-258,-24,-302,-129v-48,-114,-18,-305,-9,-457","w":815},"|":{"d":"435,-1365r159,0r0,1706r-159,0r0,-1706","w":1028},"}":{"d":"454,-662v-6,97,43,154,116,173v-3,21,-5,43,-6,66v-108,33,-126,108,-129,259r-3,168v-4,178,2,282,-75,368v-62,70,-139,77,-281,79v3,-24,6,-59,8,-105v138,-7,194,-51,198,-201r8,-329v4,-149,23,-226,123,-272v-79,-31,-102,-99,-104,-207v-1,-76,19,-346,19,-418v0,-133,-56,-175,-183,-179r1,-105v210,-6,341,59,331,255","w":815},"~":{"d":"466,-642v-97,0,-136,70,-184,153r-87,-66v59,-124,152,-264,344,-222v122,27,226,138,362,138v102,0,141,-69,188,-151r88,64v-55,120,-130,229,-293,229v-155,0,-265,-145,-418,-145","w":1370},"\u20ac":{"d":"150,-864v65,-334,301,-525,692,-525v90,0,194,12,311,37r10,148v-248,-83,-473,-86,-649,44v-90,67,-150,167,-182,296r739,0r-24,127r-736,0v-2,16,-2,74,-2,108r717,0r-25,127r-679,0v49,265,206,398,473,398v102,0,219,-21,350,-62r-25,148v-135,27,-246,41,-332,41v-375,0,-602,-191,-649,-525r-116,0r26,-127r80,0r4,-108r-110,0r26,-127r101,0","w":1202},"\u00a0":{"w":512}}});


/*!
 * The following copyright notice may not be removed under any circumstances.
 * 
 * Copyright:
 * Typeface: Copyright ©1995 International Typeface Corporation. Data: Copyright ©
 * 1995 Microsoft Corportation. All rights reserved.
 * 
 * Trademark:
 * ITC Eras is a registered trademark of International Typeface Corporation.
 */
